-1.144083514809608459e-01 -3.432933986186981201e-01 -8.382787704467773438e-01 -6.500379443168640137e-01 5.442567914724349976e-02 1.003177285194396973e+00 1.727630151435732841e-03 2.600801289081573486e-01 -5.210820436477661133e-01 -4.831159412860870361e-01 7.956780791282653809e-01 2.196990102529525757e-01 -2.940157353878021240e-01 -4.999921023845672607e-01 5.081131458282470703e-01 4.121597111225128174e-01
2.778215706348419189e-01 7.541229724884033203e-01 -2.102192789316177368e-01 4.690956473350524902e-01 9.955319762229919434e-01 -1.091513991355895996e+00 -4.905298352241516113e-01 6.455045342445373535e-01 -7.695055603981018066e-01 9.692273736000061035e-01 -4.190772473812103271e-01 -3.209406435489654541e-01 -3.602068722248077393e-01 -4.435726702213287354e-01 -8.453215956687927246e-01 -4.670010209083557129e-01
-9.171344041824340820e-01 4.377843439579010010e-01 5.462594032287597656e-01 -9.769893288612365723e-01 2.056725323200225830e-01 -5.536699295043945312e-01 -1.071504652500152588e-01 -1.050728932023048401e-01 -8.873770236968994141e-01 5.058794617652893066e-01 1.456434279680252075e-01 5.277429819107055664e-01 9.091729521751403809e-01 -6.875817775726318359e-01 8.601925969123840332e-01 1.428362846374511719e+00
1.972838537767529488e-03 -3.935328722000122070e-01 6.817499995231628418e-01 8.318713307380676270e-01 -5.253759026527404785e-01 -1.431886851787567139e-01 -7.477183341979980469e-01 7.152644395828247070e-01 7.302289009094238281e-01 8.005127906799316406e-01 -6.580329537391662598e-01 -5.324870944023132324e-01 -4.055414497852325439e-01 -7.920494079589843750e-01 -4.263798892498016357e-01 7.581295967102050781e-01
-7.154333591461181641e-01 5.707716345787048340e-01 -8.358556777238845825e-02 7.199338078498840332e-01 3.117574155330657959e-01 -9.376236200332641602e-01 6.884953975677490234e-01 -4.905124008655548096e-01 7.358254790306091309e-01 -7.590919733047485352e-01 8.366885781288146973e-01 -2.282521873712539673e-01 -4.331173002719879150e-02 1.390650868415832520e-01 2.931715250015258789e-01 -1.365471005439758301e+00
1.071466326713562012e+00 -1.999399065971374512e-01 7.162808179855346680e-01 7.906275391578674316e-01 -1.471099853515625000e+00 8.885485529899597168e-01 1.042237520217895508e+00 4.289445281028747559e-01 -2.615473568439483643e-01 -1.033225283026695251e-01 -1.557699441909790039e+00 -1.412787318229675293e+00 4.017711803317070007e-02 1.070516824722290039e+00 -1.831953413784503937e-02 8.365875482559204102e-02
-6.101106405258178711e-01 -2.764859497547149658e-01 -5.015535354614257812e-01 -7.082184553146362305e-01 5.459024906158447266e-01 4.030155390501022339e-02 -4.164778590202331543e-01 9.563654661178588867e-01 -4.036173224449157715e-01 -1.333964824676513672e+00 -4.452484101057052612e-02 8.836795091629028320e-01 8.402531147003173828e-01 3.488708436489105225e-01 -1.182724311947822571e-01 -5.508291721343994141e-01
4.843780100345611572e-01 -7.097099423408508301e-01 4.268508553504943848e-01 2.896279655396938324e-02 -5.847793817520141602e-01 -2.198768407106399536e-01 4.548759758472442627e-02 -3.651502132415771484e-01 -2.043010592460632324e-01 7.782913446426391602e-01 6.988926529884338379e-01 6.818244457244873047e-01 -1.492985963821411133e+00 8.218803256750106812e-02 1.233484864234924316e+00 -1.108140647411346436e-01
-5.032598227262496948e-02 8.102269768714904785e-01 -4.716486334800720215e-01 -1.353326320648193359e+00 3.074227832257747650e-02 1.559966504573822021e-01 2.546315789222717285e-01 -2.906565964221954346e-01 6.893545389175415039e-01 7.580954581499099731e-02 -4.023030400276184082e-01 4.187561273574829102e-01 -3.876376748085021973e-01 9.674407839775085449e-01 -1.394181966781616211e+00 3.844048380851745605e-01
7.017511725425720215e-01 -7.067025303840637207e-01 3.478221595287322998e-01 5.550064444541931152e-01 9.043448567390441895e-01 2.827653288841247559e-01 -6.530054211616516113e-01 -1.738310575485229492e+00 9.478664398193359375e-01 -4.058803617954254150e-01 2.871831953525543213e-01 9.894286841154098511e-02 4.434036910533905029e-01 1.991462260484695435e-01 2.883703708648681641e-01 -8.697666525840759277e-01
