7.600996643304824829e-03 -3.499379754066467285e-02 1.096154004335403442e-02 -3.165863454341888428e-02 -2.712448313832283020e-02 -3.325973451137542725e-02 8.598566055297851562e-04 2.927181497216224670e-02 -2.800688706338405609e-02 4.479579627513885498e-03 -1.701675727963447571e-02 3.039077296853065491e-02 -1.054388098418712616e-02 1.840637251734733582e-02 -2.242093347012996674e-02 -2.207246050238609314e-02 3.244021907448768616e-02 2.464689314365386963e-03 6.317704916000366211e-03 2.607041969895362854e-02 1.445831730961799622e-02 -3.952454775571823120e-03 -2.836415730416774750e-02 -7.100317627191543579e-03 5.384307354688644409e-03 9.083945304155349731e-03 -3.423802182078361511e-02 9.440682828426361084e-03 3.533571586012840271e-02 -3.332679346203804016e-02 -1.401355862617492676e-02 -2.152460440993309021e-02 1.359702087938785553e-02 2.462071180343627930e-02 4.528798162937164307e-03 2.871704287827014923e-02 1.207322254776954651e-02 1.646327041089534760e-02 6.894257850944995880e-03 -5.602149758487939835e-03 2.404505014419555664e-02 -3.898903261870145798e-03 8.719163015484809875e-03 -8.075402118265628815e-03 2.707818150520324707e-02 -1.934436336159706116e-02 -1.858885772526264191e-02 2.915704064071178436e-02 -5.612646229565143585e-03 -3.022944927215576172e-02 -1.611984334886074066e-02 2.966024354100227356e-02 -1.099667511880397797e-02 -2.179735898971557617e-02 1.463228836655616760e-02 -1.606087200343608856e-02 7.971443235874176025e-03 -3.371805697679519653e-02 -1.435735076665878296e-02 -2.376162447035312653e-02 9.092369116842746735e-03 -2.483751066029071808e-02 -6.133543327450752258e-03 1.743369549512863159e-02 2.091223001480102539e-02 2.279749140143394470e-02 4.888685420155525208e-03 -5.875270580872893333e-04 -5.911172367632389069e-03 -4.651168826967477798e-03 -2.782617323100566864e-02 1.034157443791627884e-02 2.640655450522899628e-02 2.294523827731609344e-02 4.931901115924119949e-03 -2.579486556351184845e-02 -8.953158743679523468e-03 -1.785839162766933441e-02 -1.572335511445999146e-02 -3.233007714152336121e-02 -3.262658789753913879e-02 -1.768584921956062317e-02 1.593677699565887451e-02 1.956307888031005859e-02 2.286846935749053955e-02 -6.573988124728202820e-03 1.210497040301561356e-02 1.966325007379055023e-02 2.894934453070163727e-02 2.676712535321712494e-02 1.965176500380039215e-02 -3.303565084934234619e-02 6.102266721427440643e-03 -8.961415733210742474e-04 -5.757698416709899902e-02 -4.785811062902212143e-03 8.382820524275302887e-03 -2.743102796375751495e-02 -2.217421680688858032e-02 2.378584817051887512e-02 2.520034555345773697e-03 -5.533609539270401001e-03 8.954415097832679749e-03 7.721109315752983093e-03 -4.251821339130401611e-02 -3.229120746254920959e-02 -2.406691759824752808e-02 -2.203530259430408478e-02 -1.640312373638153076e-02 1.329463720321655273e-02 -2.010643482208251953e-02 -3.551617264747619629e-04 -2.368285134434700012e-02 3.096224740147590637e-02 -8.548632264137268066e-03 -2.974414452910423279e-02 -2.890238352119922638e-02 2.313216775655746460e-02 -3.811329230666160583e-02 -3.609234839677810669e-02 -6.248952355235815048e-03 -3.219848498702049255e-02 -1.031261533498764038e-01 -9.472965449094772339e-02 -7.301767170429229736e-02 1.771282032132148743e-02 1.953736692667007446e-02 -2.170107513666152954e-02 -2.568824216723442078e-02 -4.256616160273551941e-02 -1.252185646444559097e-02 -5.623008683323860168e-02 -7.720956206321716309e-02 -5.888905003666877747e-02 -7.332202047109603882e-02 -3.424508124589920044e-02 7.695958483964204788e-03 -2.477157115936279297e-02 3.527997806668281555e-02 1.139860041439533234e-02 3.547076135873794556e-03 1.588232815265655518e-03 3.260096535086631775e-02 -2.090035937726497650e-02 -7.889434695243835449e-03 -2.614911273121833801e-02 -3.376342728734016418e-02 -6.926301866769790649e-02 -6.342782825231552124e-02 -1.469128578901290894e-01 -1.169809103012084961e-01 -7.096990942955017090e-02 -6.424433737993240356e-02 -4.789178725332021713e-03 -8.928734064102172852e-02 -1.186873465776443481e-01 -1.341167092323303223e-01 -1.955027133226394653e-01 -1.151357516646385193e-01 -7.582179456949234009e-02 -5.229043215513229370e-02 -5.263264477252960205e-02 -2.877945080399513245e-02 -6.359558086842298508e-03 2.894236473366618156e-03 -1.198867987841367722e-02 1.593141257762908936e-02 9.578505530953407288e-03 1.615237817168235779e-02 -2.590158581733703613e-02 1.618695072829723358e-02 -8.706558495759963989e-03 2.002269029617309570e-02 -5.265464261174201965e-02 -7.571870088577270508e-02 -6.845889985561370850e-02 -9.755277633666992188e-02 -1.130305007100105286e-01 -6.641060858964920044e-02 -4.979670420289039612e-02 -4.600986838340759277e-02 1.887782663106918335e-02 4.250023886561393738e-02 -3.461399674415588379e-02 -8.927391469478607178e-02 -6.163100525736808777e-02 1.804533414542675018e-02 -1.699841395020484924e-02 3.543409332633018494e-02 6.504937075078487396e-03 -3.765227645635604858e-02 -5.778402462601661682e-02 -2.788889780640602112e-02 2.419509738683700562e-02 3.973510861396789551e-02 -3.318655537441372871e-03 -3.224236518144607544e-02 2.682427503168582916e-02 2.502652071416378021e-02 2.350951172411441803e-02 -6.913238018751144409e-02 -1.132586747407913208e-01 -9.969344735145568848e-02 -8.325082808732986450e-02 -1.566320806741714478e-01 -7.578893750905990601e-02 -4.336613416671752930e-02 -5.741414427757263184e-02 1.073645949363708496e-01 7.229258120059967041e-02 1.577824950218200684e-01 1.033295765519142151e-01 1.367560029029846191e-01 9.892815351486206055e-02 1.079842150211334229e-01 9.670422971248626709e-02 9.541691094636917114e-02 7.734917849302291870e-02 9.580735117197036743e-02 2.751399390399456024e-02 -1.126657798886299133e-02 8.328562602400779724e-03 1.305081136524677277e-02 1.437012758105993271e-02 -6.719833705574274063e-03 -1.882670074701309204e-02 1.033827383071184158e-02 -1.149922888725996017e-02 -3.867090120911598206e-02 -5.453796312212944031e-02 -5.224916338920593262e-02 -9.281034022569656372e-02 -6.129436567425727844e-02 -1.214619129896163940e-01 -9.629411250352859497e-02 -9.918829053640365601e-02 -3.213506564497947693e-02 9.429193288087844849e-02 1.504801660776138306e-01 1.523830145597457886e-01 2.270127385854721069e-01 2.010054290294647217e-01 2.297178804874420166e-01 1.808813214302062988e-01 1.510034352540969849e-01 1.635862290859222412e-01 1.219882071018218994e-01 4.865666851401329041e-02 6.336973607540130615e-02 3.601161018013954163e-02 5.031240638345479965e-03 -3.367058932781219482e-02 -5.782736930996179581e-03 -2.787627279758453369e-02 -1.805852726101875305e-02 -2.073674649000167847e-02 -8.142537623643875122e-02 -4.599486663937568665e-02 -8.305843174457550049e-02 -9.479795396327972412e-02 -1.133431270718574524e-01 -1.438465714454650879e-01 -7.819818705320358276e-02 -1.151668950915336609e-01 -1.209016051143407822e-02 7.187390327453613281e-02 1.998171657323837280e-01 2.040783911943435669e-01 1.474744975566864014e-01 2.744639813899993896e-01 2.760845720767974854e-01 2.244592308998107910e-01 1.385806947946548462e-01 1.183416470885276794e-01 1.269343048334121704e-01 9.603955596685409546e-02 1.091246530413627625e-01 8.782930672168731689e-02 4.073926433920860291e-02 1.854910142719745636e-02 3.110623918473720551e-02 2.394133619964122772e-02 -5.781758227385580540e-04 3.525666892528533936e-03 -3.583135455846786499e-02 -7.249910384416580200e-02 -8.738325536251068115e-02 -1.418122202157974243e-01 -9.907478839159011841e-02 -1.317786723375320435e-01 -1.426253914833068848e-01 -9.582132101058959961e-02 -1.385206263512372971e-02 1.278721094131469727e-01 1.766160875558853149e-01 1.597545146942138672e-01 1.959138214588165283e-01 1.623676270246505737e-01 1.603574752807617188e-01 1.458413898944854736e-01 1.501926630735397339e-01 1.058649569749832153e-01 1.389691978693008423e-01 1.503698080778121948e-01 1.730003505945205688e-01 1.146809533238410950e-01 2.937429584562778473e-02 5.106099415570497513e-03 3.878169693052768707e-03 -5.804073996841907501e-03 2.849054150283336639e-02 2.994746528565883636e-02 -1.149924751371145248e-02 2.891549840569496155e-02 -3.581984341144561768e-02 -7.932163774967193604e-02 -5.442460998892784119e-02 -1.219218894839286804e-01 -8.701605349779129028e-02 -4.664108529686927795e-02 -4.886171594262123108e-02 1.570624560117721558e-01 1.919622123241424561e-01 1.138279065489768982e-01 5.017398297786712646e-02 5.520571768283843994e-02 1.272076070308685303e-01 6.356674432754516602e-02 1.026781126856803894e-01 1.291312873363494873e-01 8.011368662118911743e-02 1.150110512971878052e-01 6.216451898217201233e-02 7.306650280952453613e-02 -5.960518959909677505e-03 -1.348102930933237076e-02 1.393059082329273224e-02 1.217238325625658035e-02 -1.561390818096697330e-04 3.834834694862365723e-02 7.235760241746902466e-02 4.604576155543327332e-02 3.364352509379386902e-02 -3.925372660160064697e-02 -7.047676295042037964e-02 -3.002012707293033600e-02 -6.201041117310523987e-02 -5.487193912267684937e-02 -1.597510576248168945e-01 -8.881808258593082428e-03 1.321295499801635742e-01 6.298585236072540283e-02 -7.869639992713928223e-02 1.496465597301721573e-02 -3.630533581599593163e-03 5.158354062587022781e-03 1.605411805212497711e-02 -3.705101832747459412e-02 -2.257854491472244263e-02 1.921505667269229889e-02 -2.875885739922523499e-02 6.853204220533370972e-03 -8.892556652426719666e-03 -6.495225708931684494e-03 3.184425830841064453e-02 2.862448804080486298e-02 2.628932707011699677e-02 9.487080387771129608e-03 1.371316462755203247e-01 8.815168589353561401e-02 2.317650616168975830e-02 2.991344965994358063e-02 9.740407578647136688e-03 -5.603882297873497009e-02 -9.583299607038497925e-02 -1.297040581703186035e-01 -1.271618753671646118e-01 1.337954867631196976e-02 6.120503693819046021e-02 -1.693152636289596558e-02 -2.050315774977207184e-02 -6.489019840955734253e-02 -4.409213364124298096e-02 3.283775644376873970e-03 -1.416052505373954773e-02 -8.288439363241195679e-02 -8.089581876993179321e-02 -1.334844827651977539e-01 -1.197458729147911072e-01 -3.343582525849342346e-02 -1.777718961238861084e-02 1.564980112016201019e-02 -3.164293244481086731e-02 -1.909118331968784332e-02 1.978666894137859344e-02 4.830303415656089783e-02 7.390699535608291626e-02 4.669461026787757874e-02 5.142081528902053833e-02 1.265930011868476868e-03 -5.445082206279039383e-03 -3.022694215178489685e-02 -4.738761484622955322e-02 -1.338567286729812622e-01 -1.091078519821166992e-01 -1.033236831426620483e-02 6.938644498586654663e-02 4.562181234359741211e-02 4.398261010646820068e-02 -4.832733049988746643e-02 -1.021055225282907486e-02 -6.118607521057128906e-02 -2.662091143429279327e-02 -1.031730175018310547e-01 -1.636198461055755615e-01 -1.892386972904205322e-01 -1.169342696666717529e-01 -1.249990891665220261e-02 3.660566406324505806e-03 1.482422230765223503e-03 -1.209924835711717606e-02 -5.089594982564449310e-03 3.601209726184606552e-03 1.834517158567905426e-02 5.448216944932937622e-02 9.920696727931499481e-03 8.560821413993835449e-02 7.112521678209304810e-02 6.850571185350418091e-02 -1.828088425099849701e-02 -6.910788267850875854e-02 -1.384815424680709839e-01 -1.022979691624641418e-01 -5.010971054434776306e-02 -2.388706617057323456e-02 4.821646958589553833e-02 3.082926198840141296e-02 5.981816351413726807e-02 5.086886510252952576e-02 -6.064900383353233337e-02 -8.067665249109268188e-02 -1.644711047410964966e-01 -1.430196017026901245e-01 -1.315124332904815674e-01 -1.187047883868217468e-01 -4.268289729952812195e-02 -1.884403452277183533e-02 -4.799543414264917374e-03 -5.560332210734486580e-04 8.053966797888278961e-03 -3.029334358870983124e-02 1.709757931530475616e-02 2.459192834794521332e-02 6.560766696929931641e-02 8.163778483867645264e-02 5.702664330601692200e-02 9.581087529659271240e-02 1.426172722131013870e-02 -1.610382460057735443e-02 -8.295935392379760742e-02 -7.311917096376419067e-02 -4.890709184110164642e-03 -2.945717051625251770e-02 -2.939847111701965332e-02 6.697240471839904785e-02 -1.304638717556372285e-04 -2.347427792847156525e-02 -1.182946488261222839e-01 -1.464838087558746338e-01 -2.560092806816101074e-01 -2.041023969650268555e-01 -1.970017403364181519e-01 -1.285962015390396118e-01 -7.394425570964813232e-02 -5.024946108460426331e-02 3.019215725362300873e-02 -2.237227559089660645e-02 -2.184461057186126709e-02 -1.653224229812622070e-02 -3.721040487289428711e-02 -1.909227482974529266e-02 2.196400426328182220e-02 5.914757400751113892e-02 5.682314559817314148e-02 6.507468968629837036e-02 2.913468889892101288e-02 6.539854407310485840e-02 1.304039824753999710e-02 -1.404062099754810333e-02 6.419935822486877441e-02 4.638019576668739319e-02 1.285595744848251343e-01 1.045376434922218323e-01 3.472111374139785767e-02 -6.307186186313629150e-02 -8.135072141885757446e-02 -1.183102652430534363e-01 -2.177058458328247070e-01 -1.732128262519836426e-01 -1.068885549902915955e-01 -7.796733826398849487e-02 -6.858048588037490845e-02 -2.466984838247299194e-02 -5.500366445630788803e-03 -1.025109319016337395e-03 3.493820130825042725e-02 -1.198846846818923950e-03 -4.275615513324737549e-02 -3.392231091856956482e-02 -3.835443407297134399e-02 3.500858694314956665e-02 2.765887416899204254e-02 5.179836973547935486e-02 6.274774670600891113e-02 1.567221283912658691e-01 1.402596980333328247e-01 2.378631196916103363e-02 9.700178354978561401e-02 1.226693987846374512e-01 7.053928077220916748e-02 1.156632322818040848e-02 3.091836534440517426e-02 -1.433686469681560993e-03 -4.639426991343498230e-02 -8.866330236196517944e-02 -1.739480048418045044e-01 -1.025053113698959351e-01 -1.312309950590133667e-01 -9.126426279544830322e-02 -2.346286736428737640e-02 1.867466722615063190e-03 3.112475946545600891e-02 -2.042139321565628052e-02 -1.227733306586742401e-02 2.364986576139926910e-02 -3.134124726057052612e-02 -3.108506277203559875e-02 -5.114369466900825500e-02 -5.441259965300559998e-02 4.607250448316335678e-03 -6.272992584854364395e-03 -1.594927348196506500e-02 5.583018437027931213e-02 -1.722333766520023346e-02 7.387731969356536865e-02 8.295387029647827148e-02 -2.650472521781921387e-02 -2.418065816164016724e-02 -1.930092461407184601e-02 1.427369937300682068e-02 -5.099354311823844910e-02 -5.193305388092994690e-02 -8.977724611759185791e-02 -1.690417230129241943e-01 -8.833634853363037109e-02 -6.659770011901855469e-02 -7.635904848575592041e-02 -1.354567054659128189e-02 5.902927368879318237e-03 -2.245352370664477348e-03 1.049395650625228882e-02 1.416001655161380768e-02 -6.181808421388268471e-04 -1.021233503706753254e-03 -8.484985679388046265e-02 1.070801913738250732e-02 6.631938274949789047e-03 -7.675681263208389282e-02 -1.056155376136302948e-02 -6.079462356865406036e-03 -4.122443497180938721e-02 -3.716382384300231934e-02 -3.111823648214340210e-02 5.648177117109298706e-02 -3.210188820958137512e-02 -4.904336854815483093e-02 -3.846032544970512390e-02 -3.400595486164093018e-02 -8.754182606935501099e-02 -9.106505662202835083e-02 -1.138882115483283997e-01 -1.497645825147628784e-01 -5.793530866503715515e-02 -8.297009021043777466e-02 -1.482294313609600067e-02 2.316820248961448669e-02 6.944695021957159042e-03 1.402255240827798843e-02 -1.919358735904097557e-03 -1.924174837768077850e-02 -1.616812497377395630e-02 -2.218328043818473816e-02 -1.416390854865312576e-02 -1.451497338712215424e-02 -4.152632877230644226e-02 -1.145748235285282135e-02 -8.131165802478790283e-02 -7.220732420682907104e-02 -2.888395078480243683e-02 -4.784703254699707031e-02 -5.718717351555824280e-02 -4.545166343450546265e-02 -1.144261434674263000e-01 -6.734197586774826050e-02 -7.954026013612747192e-02 -1.451127380132675171e-01 -2.025155723094940186e-01 -1.279920041561126709e-01 -9.671233594417572021e-02 -3.817246481776237488e-02 -8.729943633079528809e-02 -1.508028339594602585e-02 -3.260718658566474915e-02 -8.408059366047382355e-03 2.982853911817073822e-03 2.091858163475990295e-02 -6.560237146914005280e-03 -3.363417088985443115e-02 -3.572221472859382629e-02 -1.933205686509609222e-02 -3.501231595873832703e-02 -2.418608404695987701e-02 -5.335685610771179199e-02 -2.751439623534679413e-02 -2.715548872947692871e-02 -1.549059059470891953e-03 -3.005052544176578522e-02 -5.761396884918212891e-02 -5.406783893704414368e-02 -1.077954620122909546e-01 -5.994214862585067749e-02 -1.238814219832420349e-01 -1.672804802656173706e-01 -1.901605576276779175e-01 -1.429175883531570435e-01 -1.864941418170928955e-01 -3.322023153305053711e-02 -2.257773652672767639e-02 3.008081391453742981e-02 2.202720195055007935e-02 3.352852538228034973e-02 -3.121668659150600433e-02 3.270244970917701721e-02 -8.630050346255302429e-03 3.162096068263053894e-02 -1.875530555844306946e-02 -1.130009535700082779e-02 5.169829353690147400e-03 2.709688805043697357e-02 1.242951210588216782e-02 -3.064366057515144348e-02 1.550367381423711777e-02 -7.694580126553773880e-03 -3.818456828594207764e-02 -1.631756080314517021e-03 -1.675618998706340790e-02 -7.441507279872894287e-02 -8.928675949573516846e-02 -5.467577278614044189e-02 -8.476857841014862061e-02 -8.713977038860321045e-02 -9.275540709495544434e-02 -1.552331745624542236e-01 -1.089622154831886292e-01 -1.905286312103271484e-02 3.292684629559516907e-02 5.587255209684371948e-02 5.561587866395711899e-03 7.415683008730411530e-03 2.220335789024829865e-02 2.774650231003761292e-02 3.481435403227806091e-02 -1.763586513698101044e-02 -1.407716423273086548e-03 1.534092146903276443e-02 -1.305264793336391449e-02 3.690693527460098267e-02 -3.471682779490947723e-03 -3.915102686733007431e-03 6.648251414299011230e-02 5.343510583043098450e-02 -1.782912015914916992e-02 7.386117242276668549e-03 -4.992302041500806808e-03 -4.187337122857570648e-03 7.587004452943801880e-03 -3.630942106246948242e-02 4.492309875786304474e-03 -9.595216251909732819e-03 3.857367555610835552e-04 2.118620462715625763e-02 3.449266776442527771e-02 3.115056641399860382e-02 2.020208723843097687e-02 5.020088329911231995e-02 5.676560848951339722e-02 -3.465542336925864220e-03 3.839975222945213318e-03 -1.429916173219680786e-02 -3.078080154955387115e-02 -1.180102117359638214e-02 -8.606538176536560059e-04 4.070976749062538147e-03 -6.987404078245162964e-03 -2.601222833618521690e-03 4.396336525678634644e-02 6.501918658614158630e-03 3.570261597633361816e-02 1.027258858084678650e-01 8.700092881917953491e-02 5.847039818763732910e-02 5.794888362288475037e-02 1.043966934084892273e-01 4.210862889885902405e-02 5.947523936629295349e-02 8.134028315544128418e-02 1.217321604490280151e-01 1.065527200698852539e-01 9.769024699926376343e-02 1.648779064416885376e-01 1.682299226522445679e-01 7.778053730726242065e-02 6.240621209144592285e-02 -3.033589571714401245e-03 -2.044536732137203217e-02 -7.259609643369913101e-03 2.161936648190021515e-02 -1.071129925549030304e-02 -2.187088131904602051e-02 -7.568597793579101562e-04 1.758981496095657349e-02 4.167523700743913651e-03 -2.790218219161033630e-02 -2.334429509937763214e-02 1.823644898831844330e-02 1.593844220042228699e-02 6.060548871755599976e-02 9.151194244623184204e-02 4.568618163466453552e-02 7.766972482204437256e-02 9.705489873886108398e-02 1.452970653772354126e-01 1.636081635951995850e-01 1.335370242595672607e-01 1.130267754197120667e-01 1.004254147410392761e-01 1.181860268115997314e-01 9.529861062765121460e-02 5.379231646656990051e-02 2.075164392590522766e-02 2.449055202305316925e-02 2.928387559950351715e-02 3.429094329476356506e-02 1.762096583843231201e-02 3.309524431824684143e-02 3.400583192706108093e-02 -2.028400264680385590e-02 -3.053054772317409515e-02 -1.500230282545089722e-03 -3.317701816558837891e-02 -3.489335253834724426e-02 -4.941344741382636130e-05 -6.651653442531824112e-03 -2.238783799111843109e-02 4.053788632154464722e-02 2.254936471581459045e-02 4.583477508276700974e-03 2.991252578794956207e-02 -1.897809095680713654e-02 -2.084985561668872833e-02 1.941240392625331879e-03 -1.128151733428239822e-02 3.036419220734387636e-04 1.939643733203411102e-02 -2.399617806077003479e-02 3.378928452730178833e-02 -5.778451915830373764e-03 -1.156870462000370026e-02 -2.268195711076259613e-02 2.215355634689331055e-03 1.898873969912528992e-02 -1.129752397537231445e-02 -6.940079852938652039e-03 1.311980187892913818e-02
-2.749348245561122894e-02 2.229639887809753418e-02 -2.548557519912719727e-02 2.230671420693397522e-02 -2.241365611553192139e-03 -1.935314759612083435e-02 2.927135676145553589e-03 -1.298121176660060883e-02 5.231689661741256714e-03 -1.554306223988533020e-02 -3.663871437311172485e-03 7.474437355995178223e-03 -2.631643041968345642e-02 6.462248507887125015e-03 -8.039026521146297455e-03 -1.961758732795715332e-02 -3.530750796198844910e-02 3.469774499535560608e-02 -2.579715847969055176e-02 3.062510117888450623e-02 -3.274630755186080933e-02 1.719061285257339478e-02 -3.114943578839302063e-02 2.437410876154899597e-02 2.945910021662712097e-02 2.130746468901634216e-02 -2.442496269941329956e-02 -3.471511602401733398e-02 -3.354526311159133911e-02 -3.204378113150596619e-02 8.365441113710403442e-03 2.283189445734024048e-03 2.268468774855136871e-02 -9.512812830507755280e-03 2.823276445269584656e-02 1.293313037604093552e-02 2.454800158739089966e-02 8.647483773529529572e-03 -3.496627882122993469e-02 -1.496452279388904572e-02 -4.394853115081787109e-02 -1.796358730643987656e-03 9.256242774426937103e-03 4.119924735277891159e-03 -3.056569956243038177e-03 -1.012120209634304047e-02 -9.317234158515930176e-03 -4.052759334444999695e-02 2.714339643716812134e-02 1.193674374371767044e-02 2.885900996625423431e-02 4.020499531179666519e-03 2.211913838982582092e-02 3.220528736710548401e-02 5.167033523321151733e-03 1.055267080664634705e-02 9.487234055995941162e-03 -3.004725277423858643e-02 -2.380221150815486908e-02 2.806989476084709167e-03 -7.971826940774917603e-03 -2.087659388780593872e-02 2.912910189479589462e-03 -1.547494437545537949e-02 -3.616417571902275085e-02 -5.217671394348144531e-02 -8.626550436019897461e-03 -3.724504634737968445e-02 -3.340876847505569458e-02 -1.311113499104976654e-02 -1.335076428949832916e-02 -1.468953676521778107e-03 -1.238791551440954208e-02 -4.908137023448944092e-03 -4.931422322988510132e-02 -3.911653999239206314e-03 1.578652858734130859e-02 -2.898085862398147583e-03 7.704512681812047958e-03 3.062811912968754768e-03 3.132202103734016418e-02 1.518804579973220825e-02 -3.056288324296474457e-02 1.037127524614334106e-02 -3.563710674643516541e-02 9.338680654764175415e-03 1.536208204925060272e-02 2.874574810266494751e-02 -3.184946998953819275e-02 1.508074533194303513e-02 -1.396150328218936920e-02 -1.254758890718221664e-02 -7.262082397937774658e-02 -6.032363697886466980e-02 -2.441255375742912292e-02 -6.006109714508056641e-02 -9.779597818851470947e-02 -6.459288299083709717e-02 -8.619663119316101074e-02 -9.049413353204727173e-02 -1.096882857382297516e-02 -5.242705717682838440e-02 -8.268171548843383789e-02 -3.598254919052124023e-02 -8.616670966148376465e-02 -3.501701576169580221e-04 -9.646814316511154175e-03 -5.930799990892410278e-03 -2.527266554534435272e-02 -2.387044392526149750e-02 -2.455964684486389160e-03 2.712434902787208557e-02 5.511946976184844971e-03 -3.558369353413581848e-02 -1.271810289472341537e-02 8.759114891290664673e-03 2.797130122780799866e-02 -3.278861567378044128e-02 -2.737381123006343842e-02 -3.245927393436431885e-02 -3.812403231859207153e-02 -1.311525050550699234e-02 -2.518379501998424530e-02 -2.021207846701145172e-02 -2.625249698758125305e-02 4.084196686744689941e-02 1.074730157852172852e-01 9.655020385980606079e-02 8.601218461990356445e-02 3.581508994102478027e-02 -3.366303443908691406e-02 2.927042357623577118e-02 4.600594192743301392e-02 2.748872339725494385e-02 -1.490810513496398926e-02 -7.457561325281858444e-03 -1.883453503251075745e-02 1.137247588485479355e-02 1.480194553732872009e-02 -3.359997645020484924e-04 2.918870374560356140e-02 3.947842866182327271e-03 2.668113447725772858e-02 -1.167681068181991577e-02 1.391910575330257416e-02 -1.502692978829145432e-02 -1.585415750741958618e-02 -4.632710665464401245e-02 -4.339939355850219727e-02 -5.602692812681198120e-02 -6.257891654968261719e-02 -3.891067951917648315e-02 1.502754446119070053e-02 -3.123575821518898010e-02 1.198969632387161255e-01 1.080386489629745483e-01 1.539158821105957031e-01 1.710960716009140015e-01 7.032265514135360718e-02 8.475647866725921631e-02 1.058371216058731079e-01 9.133412688970565796e-02 3.635033592581748962e-02 1.225303020328283310e-02 -2.135976403951644897e-02 2.214027568697929382e-02 -2.620799466967582703e-02 -3.278803313151001930e-03 -3.342707827687263489e-02 -2.600417286157608032e-02 3.531079040840268135e-03 -1.706605218350887299e-02 -3.041106089949607849e-02 -1.203568559139966965e-02 -1.867014355957508087e-02 -1.783530414104461670e-02 -4.806165397167205811e-02 -7.630132883787155151e-02 -6.765383481979370117e-02 -1.343971639871597290e-01 -8.582107722759246826e-02 -1.164725497364997864e-01 -1.385129094123840332e-01 -4.728421941399574280e-02 -7.092959433794021606e-02 -1.629438623785972595e-02 -5.091314390301704407e-02 7.967787235975265503e-02 5.444458499550819397e-02 1.503066625446081161e-02 1.068345606327056885e-01 1.177378967404365540e-01 7.147004455327987671e-02 -1.290061138570308685e-02 -8.890070021152496338e-03 -1.174769829958677292e-02 -8.989060297608375549e-04 -2.183060348033905029e-02 -2.271560952067375183e-03 9.090980165638029575e-04 1.698415726423263550e-02 -1.730304211378097534e-02 -4.027965664863586426e-02 6.528984522446990013e-04 -2.551623806357383728e-02 -6.706988811492919922e-02 -1.369157731533050537e-01 -1.598440259695053101e-01 -1.657574176788330078e-01 -1.214613169431686401e-01 -1.564966887235641479e-01 -1.028951853513717651e-01 -7.374340295791625977e-02 -4.785014688968658447e-02 -5.472779273986816406e-02 -3.217822313308715820e-02 -1.187758799642324448e-02 5.530379712581634521e-02 1.201137527823448181e-01 1.022315546870231628e-01 6.398012489080429077e-02 3.424881771206855774e-02 8.460775017738342285e-03 -2.824706770479679108e-02 -1.655575260519981384e-02 1.449965313076972961e-02 -1.558281015604734421e-02 -4.440527409315109253e-02 -6.046149414032697678e-03 -2.957112528383731842e-02 -5.446915514767169952e-03 2.528331940993666649e-03 -7.126199454069137573e-02 -4.667833447456359863e-02 -4.274047538638114929e-02 -3.261321038007736206e-02 -1.770941354334354401e-02 5.255156755447387695e-02 -6.882154941558837891e-02 -4.130139574408531189e-02 -4.914344474673271179e-02 3.488308191299438477e-02 -4.049226641654968262e-03 7.350339088588953018e-03 -2.765500685200095177e-03 1.862187497317790985e-02 3.110815770924091339e-02 6.383165717124938965e-02 8.044116944074630737e-02 3.469771146774291992e-02 5.667378380894660950e-02 2.400616556406021118e-02 -8.947553113102912903e-03 4.952669769409112632e-05 -1.989070326089859009e-02 4.342535044997930527e-03 -6.676753610372543335e-02 -2.639944665133953094e-02 -4.862581565976142883e-02 -3.308007121086120605e-02 -7.840009033679962158e-02 -8.276960998773574829e-02 -6.888554990291595459e-02 1.123460102826356888e-02 8.852217346429824829e-02 1.041418984532356262e-01 -4.912811331450939178e-03 -1.925131678581237793e-02 1.813314855098724365e-02 1.509239058941602707e-02 4.143608361482620239e-02 7.322932779788970947e-02 3.750536963343620300e-02 2.973761409521102905e-02 5.951170623302459717e-02 1.099728941917419434e-01 4.256812855601310730e-02 3.846454992890357971e-02 5.261815339326858521e-02 -3.337878361344337463e-02 -3.538060560822486877e-02 2.412859164178371429e-02 -3.592032566666603088e-02 -7.968754321336746216e-02 -4.378296062350273132e-02 -1.152874343097209930e-02 -2.385712042450904846e-02 -7.279591634869575500e-03 -2.219576574862003326e-02 -3.455030173063278198e-02 2.604057826101779938e-02 1.147944182157516479e-01 2.809227108955383301e-01 1.276891827583312988e-01 6.163376569747924805e-02 8.305286616086959839e-02 -2.593829669058322906e-02 1.333240792155265808e-02 -3.245972795411944389e-03 3.442664816975593567e-02 -2.153081260621547699e-02 1.279087644070386887e-02 1.572845317423343658e-02 3.745394945144653320e-02 1.895679906010627747e-02 1.967291347682476044e-03 3.684723749756813049e-02 1.238727290183305740e-02 1.846709288656711578e-02 -3.004145808517932892e-02 -5.053956806659698486e-02 -6.219798326492309570e-02 -5.460507236421108246e-03 5.203143134713172913e-02 2.164230495691299438e-02 2.512870915234088898e-02 6.651022471487522125e-03 1.799470558762550354e-02 3.810013877227902412e-03 -1.938714063726365566e-03 1.673404723405838013e-01 4.620300978422164917e-02 4.483888298273086548e-02 1.158760935068130493e-01 1.687761954963207245e-02 -1.126951426267623901e-01 -9.727184474468231201e-02 4.254526272416114807e-02 -1.103236973285675049e-01 -1.232419610023498535e-01 -4.284059163182973862e-03 4.823734238743782043e-02 8.495078980922698975e-02 5.250960960984230042e-02 5.960584059357643127e-02 1.381485816091299057e-02 2.278513088822364807e-02 -1.371431909501552582e-02 -3.020110726356506348e-02 -2.458630502223968506e-02 -6.277404725551605225e-02 -2.667513862252235413e-02 -6.509000808000564575e-02 -9.506125003099441528e-03 -4.665198922157287598e-02 -4.403996840119361877e-02 -8.994789421558380127e-02 -1.350697688758373260e-02 1.767573356628417969e-01 1.809073537588119507e-01 9.554149210453033447e-02 5.681418254971504211e-02 -5.608123727142810822e-03 -9.142404049634933472e-02 -7.647158950567245483e-02 2.311927080154418945e-02 1.650308445096015930e-02 6.731580942869186401e-02 -3.551144152879714966e-03 1.783449389040470123e-02 8.589233458042144775e-02 4.282254725694656372e-02 1.671998947858810425e-02 -6.880039814859628677e-03 2.190700173377990723e-02 2.164579182863235474e-02 -4.791067540645599365e-02 -6.141375005245208740e-02 -8.555346727371215820e-02 -5.972890555858612061e-02 -3.949674963951110840e-02 -2.497367188334465027e-02 4.508191347122192383e-02 1.238309685140848160e-02 -3.248215839266777039e-02 1.422159969806671143e-01 2.519752085208892822e-01 1.731930524110794067e-01 4.355660825967788696e-02 1.432193070650100708e-01 8.209463208913803101e-02 6.809948384761810303e-02 2.585662715137004852e-02 4.227275773882865906e-02 5.520335212349891663e-02 4.427873715758323669e-02 7.561594247817993164e-03 1.261831913143396378e-02 1.474342308938503265e-02 3.470663353800773621e-02 -1.038088579662144184e-03 3.509847447276115417e-02 -1.498437486588954926e-02 -3.155967919155955315e-03 -3.310091048479080200e-02 5.774528719484806061e-03 1.366413477808237076e-02 3.189776092767715454e-02 1.777544058859348297e-02 9.814815595746040344e-03 4.156235139816999435e-03 3.022371791303157806e-02 4.912742599844932556e-02 1.697981208562850952e-01 1.986183822154998779e-01 1.679034382104873657e-01 1.764819025993347168e-01 1.716815978288650513e-01 1.506695002317428589e-01 1.496703624725341797e-01 5.120925977826118469e-02 4.764291923493146896e-03 -8.799535781145095825e-02 -8.662773668766021729e-02 -5.350524559617042542e-02 -6.489215046167373657e-02 1.036162208765745163e-02 4.129898548126220703e-02 1.859599910676479340e-02 2.448860742151737213e-02 3.249576315283775330e-02 2.987840399146080017e-02 1.769037544727325439e-02 -9.547236375510692596e-03 3.812776133418083191e-02 9.083763696253299713e-03 -5.694658029824495316e-03 4.745469894260168076e-03 7.827595621347427368e-02 1.041701510548591614e-01 9.434737265110015869e-02 1.340506821870803833e-01 1.857861876487731934e-01 2.260623574256896973e-01 2.453542351722717285e-01 1.430085301399230957e-01 2.337050139904022217e-01 7.029365003108978271e-02 3.761055693030357361e-02 -8.378288894891738892e-02 -2.135560363531112671e-01 -1.392286717891693115e-01 -6.634140014648437500e-02 -8.692838251590728760e-02 -3.720377339050173759e-03 3.370909765362739563e-02 7.139358669519424438e-02 1.258860900998115540e-02 -2.562547102570533752e-02 1.788534969091415405e-02 7.139790803194046021e-03 3.822313249111175537e-02 -7.821856997907161713e-03 -1.663303992245346308e-04 6.426431238651275635e-02 5.569823086261749268e-02 1.471556350588798523e-02 8.403343707323074341e-02 9.060076624155044556e-02 8.767189085483551025e-02 1.876812577247619629e-01 2.371605783700942993e-01 2.308684438467025757e-01 2.044078707695007324e-01 2.232051640748977661e-01 8.452825993299484253e-02 -1.595158316195011139e-02 -1.558618396520614624e-01 -1.025184914469718933e-01 -1.736085861921310425e-02 -3.649859502911567688e-02 3.172635659575462341e-02 5.856205709278583527e-03 8.534005284309387207e-02 4.457771778106689453e-02 7.589330431073904037e-03 -3.336065262556076050e-02 7.436129730194807053e-03 2.982639893889427185e-02 3.069899603724479675e-02 4.075422417372465134e-03 2.339061163365840912e-02 8.974457532167434692e-02 2.465583570301532745e-02 4.008924961090087891e-02 7.930789142847061157e-02 4.741846024990081787e-02 5.837235599756240845e-02 8.323656767606735229e-02 1.677836179733276367e-01 1.998135447502136230e-01 1.463100910186767578e-01 1.930223405361175537e-01 -1.220867969095706940e-02 -6.721113622188568115e-02 -1.329372078180313110e-01 -5.781586095690727234e-02 2.281237952411174774e-02 -2.221598103642463684e-02 4.187117516994476318e-02 3.968932479619979858e-02 4.657875373959541321e-02 -2.126895822584629059e-02 -5.635003326460719109e-04 -9.762645699083805084e-03 3.688650438562035561e-03 -1.423582155257463455e-02 -1.464167423546314240e-02 2.496070228517055511e-02 8.401519805192947388e-02 1.163227707147598267e-01 9.830839931964874268e-02 3.773463889956474304e-02 6.377206742763519287e-02 -1.265558507293462753e-02 -2.448139898478984833e-02 7.057115435600280762e-02 1.065828800201416016e-01 9.863132238388061523e-02 6.596822291612625122e-02 1.832700707018375397e-02 -8.697014302015304565e-02 -1.185206770896911621e-01 -1.114235669374465942e-01 -2.883607149124145508e-02 1.536036375910043716e-03 3.018740937113761902e-02 8.313404023647308350e-02 7.376096397638320923e-02 2.448484301567077637e-02 3.496680036187171936e-02 -1.028292719274759293e-02 -1.337980758398771286e-02 -2.701483853161334991e-02 2.708952501416206360e-02 -3.101509809494018555e-02 -9.011999703943729401e-03 3.909112513065338135e-02 4.526424035429954529e-02 8.586558699607849121e-02 2.064402028918266296e-02 7.136245071887969971e-02 3.667457029223442078e-02 -3.916990011930465698e-02 -1.139398589730262756e-01 -8.574419654905796051e-03 2.506453543901443481e-03 8.669135719537734985e-02 4.325329884886741638e-02 -1.269284868612885475e-03 -4.421041533350944519e-02 -5.714295431971549988e-02 2.249678829684853554e-03 1.788858510553836823e-02 6.371484696865081787e-02 9.667751938104629517e-02 8.885054290294647217e-02 7.082775235176086426e-02 -1.014597248286008835e-02 -1.472951099276542664e-02 -5.454573780298233032e-03 1.052522659301757812e-02 2.922291308641433716e-02 -5.642380565404891968e-02 2.846727147698402405e-02 2.058804500848054886e-03 8.397597074508666992e-02 1.830643564462661743e-01 7.976853847503662109e-02 3.148476034402847290e-02 4.123329371213912964e-02 2.251839265227317810e-02 -2.612825669348239899e-02 -1.017723307013511658e-01 -4.062444716691970825e-02 3.575128689408302307e-02 2.831495739519596100e-02 2.418561652302742004e-02 6.793013215065002441e-02 2.765000611543655396e-02 5.814095586538314819e-02 1.000155061483383179e-01 4.742091521620750427e-02 3.064278140664100647e-02 2.896526455879211426e-02 3.473251685500144958e-02 -2.989823557436466217e-02 -1.087212841957807541e-02 8.517503738403320312e-03 3.001314960420131683e-02 1.599337905645370483e-02 -7.988061755895614624e-03 2.969757281243801117e-02 1.019312366843223572e-01 1.644419133663177490e-01 1.500820964574813843e-01 1.138629466295242310e-01 1.464655399322509766e-01 9.598089009523391724e-02 9.007885307073593140e-02 -6.927420943975448608e-02 -9.184537455439567566e-03 3.490856150165200233e-03 4.736138507723808289e-02 -1.090946141630411148e-02 8.980893343687057495e-02 5.178496986627578735e-02 3.328674286603927612e-02 8.184092491865158081e-02 4.684052616357803345e-02 8.975889533758163452e-02 4.879799857735633850e-02 4.655743762850761414e-02 -9.501091204583644867e-03 1.643905602395534515e-02 -3.248362988233566284e-02 -1.644802046939730644e-03 -2.700047753751277924e-02 -1.602521166205406189e-02 -5.280063953250646591e-03 7.098604738712310791e-02 1.166068166494369507e-01 1.450448930263519287e-01 1.804578900337219238e-01 7.123240083456039429e-02 3.918725997209548950e-02 3.633291646838188171e-02 7.851520180702209473e-02 -3.229596465826034546e-02 2.046895585954189301e-02 -4.451863095164299011e-02 -8.272117376327514648e-02 -8.296609669923782349e-02 -7.191741373389959335e-03 3.599981591105461121e-02 8.706598728895187378e-02 4.841903969645500183e-02 1.110365763306617737e-01 2.451490610837936401e-02 3.049750812351703644e-02 2.492083236575126648e-02 -2.205387875437736511e-02 -3.382486104965209961e-02 3.406699001789093018e-02 -7.428199052810668945e-03 2.465167641639709473e-02 1.921559311449527740e-02 -3.847626224160194397e-02 -5.920105054974555969e-02 -1.456836052238941193e-02 -3.502849489450454712e-02 -5.467754229903221130e-02 1.061913147568702698e-01 1.203810572624206543e-01 6.685636192560195923e-02 8.487765491008758545e-02 6.573855131864547729e-02 4.168724641203880310e-02 -3.237336874008178711e-02 -5.400883033871650696e-02 1.890693977475166321e-02 -3.154107183218002319e-02 6.678114831447601318e-02 9.826451539993286133e-02 1.154803112149238586e-01 8.984108269214630127e-02 2.411063760519027710e-02 1.856851950287818909e-02 2.556718140840530396e-02 -9.812545962631702423e-03 9.400593116879463196e-03 -3.369316458702087402e-02 1.358846202492713928e-02 -1.052800565958023071e-03 3.332149237394332886e-02 -3.037585504353046417e-02 -5.005377158522605896e-02 -1.591947823762893677e-01 -1.929685920476913452e-01 -2.031573802232742310e-01 -1.302312612533569336e-01 -3.262515738606452942e-02 -3.881601989269256592e-02 5.534247611649334431e-04 3.749140771105885506e-03 -1.580823026597499847e-02 -2.564122341573238373e-02 -4.322857782244682312e-02 7.851841859519481659e-03 -1.046674922108650208e-01 -1.170414872467517853e-02 3.727404028177261353e-02 -2.115685492753982544e-02 -3.943402320146560669e-03 -6.620757281780242920e-02 -8.695696596987545490e-04 -2.914438955485820770e-02 -8.428785018622875214e-03 -2.332941256463527679e-02 -3.272797539830207825e-02 1.736574992537498474e-02 -1.769385673105716705e-02 -1.855551637709140778e-02 -8.371447212994098663e-03 -6.069148331880569458e-02 -1.168495714664459229e-01 -1.103249192237854004e-01 -1.270767450332641602e-01 -1.933460533618927002e-01 -1.766660064458847046e-01 -1.175126358866691589e-01 -1.422355324029922485e-01 -1.373594552278518677e-01 -6.951875984668731689e-02 -5.179848521947860718e-02 -5.782621353864669800e-02 -9.249995648860931396e-02 -7.755120843648910522e-02 -1.127524822950363159e-01 -1.086105480790138245e-01 -1.112814471125602722e-01 -4.354896768927574158e-02 -3.431573882699012756e-02 -3.982871025800704956e-02 -2.085041627287864685e-02 3.186949342489242554e-02 1.684542559087276459e-02 1.931845396757125854e-02 2.238856256008148193e-02 -2.677696943283081055e-02 -1.402732729911804199e-02 -1.742551475763320923e-02 2.534174360334873199e-03 -3.108869120478630066e-02 -2.764124609529972076e-02 -3.546609729528427124e-02 -3.248069062829017639e-02 -8.918319642543792725e-02 -9.412655979394912720e-02 -1.211910992860794067e-01 -1.370331346988677979e-01 -1.719037443399429321e-01 -1.484090685844421387e-01 -1.070284768939018250e-01 -1.243821159005165100e-01 -1.061147153377532959e-01 -1.026087701320648193e-01 -6.784781813621520996e-02 -3.154458478093147278e-02 -3.769230470061302185e-02 -4.936797916889190674e-02 1.355471089482307434e-02 -2.342680282890796661e-02 6.548220757395029068e-03 2.657126262784004211e-02 -1.579124666750431061e-02 -2.770724520087242126e-02 -1.209753006696701050e-02 -1.935471966862678528e-02 -9.048424661159515381e-03 -3.447740897536277771e-02 4.019349813461303711e-03 -2.250462211668491364e-02 -2.862724661827087402e-02 -1.037259213626384735e-02 -1.199147757142782211e-02 3.091244027018547058e-03 2.626083604991436005e-02 -3.312648972496390343e-03 -1.820149458944797516e-02 6.238771602511405945e-03 -8.329170756042003632e-03 -3.542757034301757812e-02 -1.944957114756107330e-02 -5.471776239573955536e-03 1.890379935503005981e-03 -8.355663157999515533e-03 1.339106261730194092e-02 -2.920618839561939240e-02 -4.379012156277894974e-03 7.012840360403060913e-03 1.999977976083755493e-03 8.364904671907424927e-03 4.583742469549179077e-03
-3.413742780685424805e-02 -1.041205041110515594e-02 -1.406655274331569672e-02 2.843945100903511047e-02 -4.969801753759384155e-03 -3.637067973613739014e-03 3.133517876267433167e-02 -7.534090429544448853e-03 -2.846553176641464233e-02 -2.140052989125251770e-02 2.809775248169898987e-02 1.913294196128845215e-02 -6.129743531346321106e-03 -1.117591559886932373e-02 1.111635565757751465e-02 -3.483838215470314026e-02 2.691275998950004578e-02 -6.026426330208778381e-03 1.215300336480140686e-02 8.257843554019927979e-03 2.229951322078704834e-02 -2.703833207488059998e-02 -1.337552629411220551e-02 -1.571907848119735718e-02 1.351708918809890747e-02 1.329444348812103271e-03 4.513464868068695068e-03 -1.926296204328536987e-02 -3.430616110563278198e-03 3.567423298954963684e-02 2.020781114697456360e-02 -1.062430441379547119e-03 1.835478236898779869e-03 -2.114214003086090088e-02 -2.418540418148040771e-02 -2.356240339577198029e-02 1.839290559291839600e-02 -2.925781160593032837e-02 2.942193113267421722e-02 -1.997740473598241806e-03 -2.351982705295085907e-02 1.929342001676559448e-02 2.313453704118728638e-02 -2.449318021535873413e-02 3.468392044305801392e-02 -3.658733516931533813e-02 -2.159901894629001617e-02 -9.842947125434875488e-03 -2.333403937518596649e-02 2.760058082640171051e-02 2.794206701219081879e-02 3.089433303102850914e-03 -2.519432641565799713e-02 7.170662283897399902e-04 -7.306013256311416626e-03 -1.023310050368309021e-02 -1.646626554429531097e-02 1.037928462028503418e-02 1.262329239398241043e-02 -3.199697285890579224e-02 7.712403777986764908e-03 -1.780504547059535980e-02 -2.552523836493492126e-02 7.013751193881034851e-03 -4.954210016876459122e-03 2.611340209841728210e-02 -1.116771530359983444e-02 -2.866339497268199921e-02 1.398148201406002045e-02 -1.400660816580057144e-02 -2.002285048365592957e-02 -6.536178290843963623e-02 9.917603805661201477e-03 2.494281530380249023e-02 1.712092012166976929e-02 9.803866036236286163e-03 -3.037983365356922150e-02 -2.750258147716522217e-02 -4.388011619448661804e-02 -9.236454963684082031e-03 3.320809826254844666e-02 -4.956622608006000519e-03 -2.621864527463912964e-02 -2.519883215427398682e-02 1.973208785057067871e-02 3.302555903792381287e-02 -1.863539800979197025e-03 1.400064025074243546e-02 -6.140274927020072937e-03 3.333313018083572388e-02 4.206749424338340759e-02 9.473670274019241333e-03 3.424203023314476013e-02 5.057611688971519470e-02 2.267829887568950653e-02 4.869848489761352539e-02 7.882760465145111084e-02 1.722794957458972931e-02 1.793669536709785461e-02 6.323273479938507080e-02 1.598679088056087494e-02 1.076341867446899414e-01 8.057056367397308350e-02 6.578033417463302612e-02 5.937250331044197083e-02 3.412524983286857605e-02 1.029849052429199219e-02 -3.672476485371589661e-02 1.246811915189027786e-02 3.432274330407381058e-03 1.189372129738330841e-02 2.991757914423942566e-02 1.912792772054672241e-02 -2.693165279924869537e-02 2.874427242204546928e-03 -2.460145018994808197e-02 2.569478377699851990e-02 1.010497938841581345e-02 5.072584748268127441e-02 6.002377346158027649e-02 7.673176378011703491e-02 4.354912042617797852e-02 6.489413976669311523e-02 3.942702710628509521e-02 1.808505877852439880e-02 1.781209558248519897e-02 -2.650853479281067848e-03 2.749538235366344452e-02 4.337222501635551453e-02 1.039877459406852722e-01 1.482144296169281006e-01 1.073328480124473572e-01 9.197070449590682983e-02 1.391998585313558578e-02 2.798378467559814453e-03 -1.437722612172365189e-02 4.385602101683616638e-02 2.937644347548484802e-02 5.283431150019168854e-03 -1.615305244922637939e-02 -2.338267304003238678e-02 -3.074763156473636627e-02 -3.164315968751907349e-02 2.452689595520496368e-02 -1.136637106537818909e-02 8.463855087757110596e-02 5.239098519086837769e-02 4.872586950659751892e-02 3.466837480664253235e-02 1.474505662918090820e-02 3.848757594823837280e-02 2.245463058352470398e-02 1.028801500797271729e-02 -3.346775472164154053e-02 -3.264386579394340515e-02 -3.958894684910774231e-02 9.958420693874359131e-02 3.513430058956146240e-02 1.113795340061187744e-01 1.000964418053627014e-01 9.542132169008255005e-02 6.177245173603296280e-03 4.821705818176269531e-02 -3.870222717523574829e-03 2.591883577406406403e-02 1.582350768148899078e-02 -3.025809675455093384e-02 -1.895919255912303925e-02 -3.336098790168762207e-02 -1.892538741230964661e-02 -1.501330756582319736e-03 8.604682050645351410e-03 3.661481291055679321e-02 8.239433914422988892e-02 9.285075962543487549e-02 3.736950457096099854e-02 7.579305022954940796e-02 6.865495443344116211e-02 9.739515930414199829e-02 1.354861911386251450e-02 5.394282937049865723e-02 9.527765214443206787e-02 1.221759542822837830e-01 1.219814717769622803e-01 1.345199197530746460e-01 1.178903281688690186e-01 1.647840738296508789e-01 1.107055321335792542e-01 1.278584003448486328e-01 1.068268492817878723e-01 1.528389193117618561e-02 -2.476789616048336029e-02 -1.688249222934246063e-02 2.591945417225360870e-02 -5.470295436680316925e-03 8.424298721365630627e-04 1.541916653513908386e-02 2.873876504600048065e-02 -1.797771453857421875e-02 1.011188328266143799e-02 4.040135070681571960e-02 6.042458489537239075e-02 7.831288874149322510e-02 6.646132469177246094e-02 5.011507868766784668e-02 8.077163994312286377e-02 4.460241273045539856e-02 1.060147285461425781e-01 1.165548115968704224e-01 1.006907373666763306e-01 1.978471577167510986e-01 1.613533794879913330e-01 1.956797987222671509e-01 1.072409674525260925e-01 1.471793651580810547e-01 1.329226344823837280e-01 1.258344799280166626e-01 1.229697316884994507e-01 6.756280362606048584e-02 -3.120702691376209259e-02 -8.151961863040924072e-02 -1.835669949650764465e-02 -1.623285934329032898e-02 3.502968326210975647e-02 -2.813879027962684631e-02 -2.294323593378067017e-02 2.807639725506305695e-02 1.366033405065536499e-02 9.455930441617965698e-02 6.086364388465881348e-02 4.767405986785888672e-02 8.869162201881408691e-02 1.050806641578674316e-01 3.493483737111091614e-02 1.194183677434921265e-01 1.612060368061065674e-01 8.545681834220886230e-02 5.308336019515991211e-02 7.918315380811691284e-02 4.202229157090187073e-02 3.273777291178703308e-02 1.328421849757432938e-02 9.982120990753173828e-02 5.696287751197814941e-02 5.271974951028823853e-02 7.143141329288482666e-02 8.787242323160171509e-02 -1.919109746813774109e-02 -5.663450807332992554e-02 -1.576181128621101379e-02 -9.703547693789005280e-03 6.280873902142047882e-03 1.038191281259059906e-02 -9.181762114167213440e-03 2.626828104257583618e-02 2.556985616683959961e-02 1.125980615615844727e-01 8.489482849836349487e-02 7.595076411962509155e-02 6.381659209728240967e-02 7.255941629409790039e-02 3.357786685228347778e-02 1.984153129160404205e-02 9.543056599795818329e-03 -1.588145241839811206e-04 -9.183793514966964722e-02 -4.135100543498992920e-02 -2.753702364861965179e-02 -7.055830210447311401e-02 2.593323821201920509e-03 -2.578854002058506012e-02 -2.540363930165767670e-02 -2.148462273180484772e-02 3.069581463932991028e-02 1.021098792552947998e-01 -5.645070225000381470e-02 -1.084273457527160645e-01 -4.093374684453010559e-02 2.201194316148757935e-02 -4.491491708904504776e-03 -3.431138349696993828e-03 3.187528252601623535e-02 1.626987825147807598e-03 6.213164329528808594e-02 5.730325728654861450e-02 1.808149181306362152e-02 1.629949547350406647e-02 2.432935312390327454e-02 1.668880879878997803e-02 -6.845141202211380005e-02 -9.909097105264663696e-02 -1.876487731933593750e-01 -1.654456555843353271e-01 -1.761858612298965454e-01 -1.879830807447433472e-01 -1.576915383338928223e-01 -4.485635831952095032e-02 -6.156887486577033997e-02 -5.550668761134147644e-02 -1.829220098443329334e-03 -2.328095585107803345e-02 -7.012126035988330841e-03 -4.222227260470390320e-02 -7.990796118974685669e-02 -1.163896620273590088e-01 -3.730795159935951233e-02 1.501201651990413666e-02 -2.539500035345554352e-02 1.178835798054933548e-02 -1.433210074901580811e-02 1.168625894933938980e-02 3.441157564520835876e-02 5.611767619848251343e-02 -7.564838230609893799e-02 -4.389795288443565369e-02 -7.094483077526092529e-02 -1.075935065746307373e-01 -6.931535154581069946e-02 -7.283288985490798950e-02 -4.094949364662170410e-02 -9.355942159891128540e-02 -1.386925429105758667e-01 -1.666422784328460693e-01 -7.173820585012435913e-02 1.870058290660381317e-02 1.097365021705627441e-01 6.836692243814468384e-02 2.332153357565402985e-02 -3.969793766736984253e-02 -1.084073856472969055e-01 -1.047247126698493958e-01 -1.633750349283218384e-01 -1.153838336467742920e-01 3.878019051626324654e-03 2.644108980894088745e-02 1.917764544486999512e-02 3.510652808472514153e-03 -6.686521228402853012e-03 1.848019286990165710e-02 4.468059167265892029e-02 -2.815783768892288208e-02 -1.260462105274200439e-01 -1.161900907754898071e-01 -9.654954820871353149e-02 -1.748307421803474426e-02 -4.607579857110977173e-02 5.503546819090843201e-02 -2.265483140945434570e-02 -6.571058928966522217e-02 -1.081909611821174622e-01 -6.788614392280578613e-02 3.588606417179107666e-02 1.395450830459594727e-01 1.009278744459152222e-01 1.300804764032363892e-01 4.682195931673049927e-02 1.562943682074546814e-02 -7.196988165378570557e-02 -8.329656720161437988e-02 -1.849629580974578857e-01 -1.186752542853355408e-01 -3.849014639854431152e-02 -2.317933924496173859e-02 -8.558624540455639362e-04 -9.336165152490139008e-03 1.304590376093983650e-03 2.450862526893615723e-02 1.680588349699974060e-02 -5.881160497665405273e-03 -1.167717874050140381e-01 -1.496914476156234741e-01 -9.210638701915740967e-02 -5.782073736190795898e-02 -1.031465604901313782e-01 -4.529257863759994507e-02 -1.035986319184303284e-01 -8.220539987087249756e-02 -1.142019685357809067e-02 3.520606830716133118e-02 -1.126091461628675461e-02 6.850940734148025513e-02 7.039214670658111572e-02 1.136986911296844482e-01 7.121939212083816528e-02 4.581091925501823425e-02 4.123512282967567444e-02 -8.198662847280502319e-02 -1.003249436616897583e-01 -4.769267514348030090e-02 1.036696694791316986e-02 1.066168490797281265e-02 -3.036714345216751099e-02 2.097822539508342743e-02 5.322942510247230530e-03 3.444404527544975281e-02 1.556940656155347824e-02 -4.081321507692337036e-02 -1.725903451442718506e-01 -1.033144518733024597e-01 -1.058133617043495178e-01 -6.342486292123794556e-02 -1.331459879875183105e-01 -1.486910581588745117e-01 -1.520650237798690796e-01 -1.360929906368255615e-01 -6.954862177371978760e-02 1.732371398247778416e-03 -3.073852509260177612e-02 3.677687048912048340e-02 3.931260854005813599e-02 1.327801048755645752e-01 7.075061649084091187e-02 7.280328869819641113e-02 2.922825142741203308e-02 -2.855224907398223877e-02 -6.104258447885513306e-02 -2.249466255307197571e-02 -2.298313379287719727e-02 -1.410372368991374969e-02 -2.686814218759536743e-02 -8.037071675062179565e-03 -2.719818241894245148e-02 -9.979631751775741577e-03 2.457054145634174347e-02 2.271199040114879608e-02 -8.280511200428009033e-02 -2.814005315303802490e-02 -1.034522727131843567e-01 -1.378951966762542725e-01 -1.995594799518585205e-01 -1.748141646385192871e-01 -1.535917520523071289e-01 -1.410270929336547852e-01 -3.111037425696849823e-02 -7.295269519090652466e-02 2.054338529706001282e-02 -3.373150900006294250e-02 7.547087222337722778e-02 8.280003815889358521e-02 1.218149438500404358e-01 4.667517170310020447e-02 5.542663857340812683e-02 5.038974341005086899e-03 -4.043117538094520569e-02 3.524190559983253479e-02 3.306312114000320435e-02 -4.771951062139123678e-04 8.166413754224777222e-03 4.096927121281623840e-03 -3.987095784395933151e-03 -7.580455392599105835e-03 3.710136562585830688e-02 7.029766589403152466e-02 -4.297784063965082169e-03 -2.277779206633567810e-02 -8.752971142530441284e-02 -1.544722467660903931e-01 -1.426318585872650146e-01 -1.804824620485305786e-01 -1.541060805320739746e-01 -2.625445462763309479e-02 9.664223529398441315e-03 -8.025010675191879272e-02 -3.749929368495941162e-02 2.588796243071556091e-02 8.844717592000961304e-02 1.383572220802307129e-01 1.398876905441284180e-01 7.101316750049591064e-02 2.937673404812812805e-02 4.680710658431053162e-02 1.981136947870254517e-02 5.511354655027389526e-02 3.865846246480941772e-02 7.752559613436460495e-03 -2.759856916964054108e-02 3.200319036841392517e-02 5.940937437117099762e-03 3.328156843781471252e-02 6.105530634522438049e-02 7.118789106607437134e-02 5.622108280658721924e-02 4.400916025042533875e-02 -2.260458283126354218e-02 -4.866874217987060547e-02 -9.825905412435531616e-02 -2.006887346506118774e-01 -1.574809998273849487e-01 -8.744781464338302612e-02 -5.770439282059669495e-02 -1.130016148090362549e-01 -4.486515372991561890e-02 -1.028538332320749760e-03 8.765943348407745361e-02 1.564373821020126343e-01 8.438945561647415161e-02 3.627112507820129395e-02 1.436711102724075317e-02 -3.748327493667602539e-02 -5.827626585960388184e-02 4.488011449575424194e-02 3.045268170535564423e-02 2.813195995986461639e-02 -2.096669748425483704e-02 2.026607468724250793e-02 2.750758454203605652e-02 1.937180571258068085e-02 1.004157513380050659e-01 6.202263385057449341e-02 9.048075973987579346e-02 1.160533651709556580e-01 7.542651891708374023e-02 -1.883801072835922241e-02 -8.100514858961105347e-02 -4.115666449069976807e-02 -5.522012338042259216e-02 -6.513230502605438232e-02 -2.309584617614746094e-02 -3.133381530642509460e-02 1.677085086703300476e-02 1.009655073285102844e-01 8.923844993114471436e-02 6.644467264413833618e-02 7.496141642332077026e-02 1.245136093348264694e-02 -9.966249577701091766e-03 -2.189965546131134033e-02 -4.861338809132575989e-02 1.090582739561796188e-02 6.143302097916603088e-02 1.629382953979074955e-03 1.438117120414972305e-02 3.261934220790863037e-02 2.032024040818214417e-02 3.008063882589340210e-02 7.668637484312057495e-02 6.128164380788803101e-02 1.036810204386711121e-01 1.107556074857711792e-01 8.560293167829513550e-02 8.522965013980865479e-02 5.571009963750839233e-02 -6.231804843991994858e-03 5.631219223141670227e-02 2.921409346163272858e-02 2.884816564619541168e-02 4.386689513921737671e-02 1.222754921764135361e-02 2.390215871855616570e-03 4.138295724987983704e-02 3.284347802400588989e-02 -1.442963536828756332e-02 -2.722056768834590912e-02 -1.365350093692541122e-02 -9.571108222007751465e-02 -1.753842085599899292e-02 5.568375810980796814e-02 -6.339640356600284576e-03 1.843593083322048187e-02 3.280065953731536865e-02 9.798981249332427979e-03 2.108113281428813934e-02 2.865155972540378571e-02 4.488705471158027649e-02 8.589063584804534912e-02 9.615927189588546753e-02 7.870021462440490723e-02 7.795662432909011841e-02 9.803353250026702881e-02 1.287637054920196533e-01 4.312060773372650146e-02 3.727614134550094604e-02 -1.147454418241977692e-02 4.717135801911354065e-03 5.753130838274955750e-02 4.047933965921401978e-02 3.352408111095428467e-02 1.332788914442062378e-02 5.685601849108934402e-03 -1.063109468668699265e-02 -3.439277037978172302e-02 -5.197210237383842468e-02 -6.327568739652633667e-02 1.246358547359704971e-02 3.396173939108848572e-02 1.823824830353260040e-02 5.802704486995935440e-03 9.840708225965499878e-03 3.516143886372447014e-03 -1.546898484230041504e-02 1.731874607503414154e-02 1.194140780717134476e-02 2.893740125000476837e-02 -3.411629050970077515e-02 -3.688260912895202637e-02 -1.192252989858388901e-02 2.187529951333999634e-02 3.147598356008529663e-02 4.532969743013381958e-02 2.192532829940319061e-02 4.857967793941497803e-02 8.227124810218811035e-02 3.382333740592002869e-02 3.562828153371810913e-02 9.776107966899871826e-02 1.741750352084636688e-02 4.575074836611747742e-02 3.719289600849151611e-02 -2.336349897086620331e-02 -6.831891834735870361e-02 -7.285807747393846512e-03 3.393787145614624023e-02 2.736291475594043732e-02 -2.233875915408134460e-02 -1.167136244475841522e-02 -2.030115388333797455e-02 -1.851738244295120239e-02 8.471062406897544861e-03 -2.698280662298202515e-02 2.663271129131317139e-02 3.217684105038642883e-02 6.062276661396026611e-03 -6.551762670278549194e-02 -6.936476379632949829e-02 -2.149184979498386383e-02 -3.696439042687416077e-02 -6.111610215157270432e-03 1.961769536137580872e-02 -2.825781935825943947e-03 -2.327907271683216095e-02 7.533330004662275314e-03 1.615834794938564301e-02 5.520180240273475647e-02 -8.329833857715129852e-03 3.604633733630180359e-02 3.205196186900138855e-02 2.352364547550678253e-02 -4.556328803300857544e-02 1.587933488190174103e-02 3.273748792707920074e-03 -9.934316389262676239e-03 6.626158719882369041e-04 2.228711359202861786e-02 -3.417485579848289490e-02 3.073972091078758240e-02 -1.187114603817462921e-02 -3.534510964527726173e-03 3.241332992911338806e-02 1.022177860140800476e-01 5.271083489060401917e-02 5.317810550332069397e-02 4.524480924010276794e-02 -6.941252201795578003e-02 -8.034995198249816895e-02 -8.130658417940139771e-02 -6.203428283333778381e-02 -1.092260330915451050e-01 -8.581443876028060913e-02 -6.295408308506011963e-02 4.148717038333415985e-03 9.972594678401947021e-03 5.132775753736495972e-02 1.031309887766838074e-01 2.865263447165489197e-02 7.174488622695207596e-03 3.074101731181144714e-02 8.611651137471199036e-03 2.167038619518280029e-02 9.611745364964008331e-03 7.670900784432888031e-03 9.221690706908702850e-03 -3.414195403456687927e-02 -1.572581753134727478e-02 8.734021335840225220e-03 3.162142634391784668e-02 5.417582765221595764e-02 8.319504559040069580e-02 1.177232116460800171e-01 1.313499808311462402e-01 1.083585396409034729e-01 5.538318678736686707e-02 2.321807481348514557e-02 -1.903189346194267273e-02 4.801580682396888733e-02 -5.735690146684646606e-02 4.134318605065345764e-02 6.111294403672218323e-02 6.901703029870986938e-02 1.000583469867706299e-01 1.240023151040077209e-01 4.817426670342683792e-03 1.496370183303952217e-03 -8.923881687223911285e-03 1.467796787619590759e-02 8.155138231813907623e-03 -1.322700874879956245e-03 2.292218245565891266e-02 2.273664437234401703e-02 -2.130694314837455750e-02 -3.554296121001243591e-02 -2.179728448390960693e-02 3.498689457774162292e-02 -8.762304671108722687e-03 -2.709297230467200279e-03 4.775245860219001770e-02 5.405635014176368713e-02 4.776234552264213562e-02 7.725754380226135254e-02 1.594002544879913330e-01 1.230275407433509827e-01 1.948743760585784912e-01 1.512470245361328125e-01 2.067891359329223633e-01 2.212486565113067627e-01 1.422909349203109741e-01 1.139796897768974304e-01 1.553252786397933960e-01 6.003692746162414551e-02 6.955501437187194824e-02 1.306464243680238724e-02 2.584945969283580780e-02 -1.429575774818658829e-02 -2.824719995260238647e-02 -7.675114553421735764e-03 2.077894844114780426e-02 1.688802987337112427e-02 -1.700604334473609924e-02 -2.868158556520938873e-02 -3.282673656940460205e-02 -1.575211994349956512e-02 3.341701999306678772e-02 -1.317629497498273849e-02 3.032070212066173553e-02 2.533035166561603546e-02 -3.001191094517707825e-02 2.431330457329750061e-02 7.985956035554409027e-03 3.423764929175376892e-02 7.381273806095123291e-02 4.469319805502891541e-02 3.443133831024169922e-02 1.082384064793586731e-01 6.228886544704437256e-02 1.089507564902305603e-01 7.716467231512069702e-02 5.400330945849418640e-02 5.798332765698432922e-02 1.829676330089569092e-03 -1.218710374087095261e-02 -3.025029227137565613e-02 1.696554385125637054e-02 6.891169119626283646e-03 2.760981954634189606e-02 1.479679811745882034e-02 2.148734405636787415e-02 2.047166228294372559e-02 7.815536111593246460e-03 -3.428425639867782593e-03 -1.131903380155563354e-02 1.717921718955039978e-02 6.782280746847391129e-03 1.367472577840089798e-02 3.483973443508148193e-02 -2.618699520826339722e-02 -1.021037623286247253e-02 1.149259507656097412e-02 2.789705619215965271e-02 -8.741682395339012146e-04 4.224514961242675781e-02 -1.577809080481529236e-02 1.235825824551284313e-03 7.417120970785617828e-03 1.926280744373798370e-02 1.536338310688734055e-02 7.028050255030393600e-03 2.701741643249988556e-02 2.109586074948310852e-02 -2.182015217840671539e-03 1.057132892310619354e-02 -7.587540894746780396e-03 -2.122269943356513977e-02 2.785534039139747620e-02 5.222070962190628052e-03 1.550234854221343994e-02
-1.301354169845581055e-02 3.347800299525260925e-02 -9.970886632800102234e-03 -7.576929405331611633e-03 -5.915978923439979553e-03 6.163246929645538330e-03 7.561981678009033203e-03 2.907870337367057800e-02 2.157862484455108643e-02 4.048876464366912842e-03 1.200643926858901978e-02 1.863620057702064514e-02 -1.674585416913032532e-02 3.086299635469913483e-02 1.920562610030174255e-02 -3.407512605190277100e-02 -1.845685578882694244e-02 -3.096707165241241455e-03 7.957104593515396118e-03 1.668387651443481445e-02 -3.585152328014373779e-03 -1.231804490089416504e-02 1.813872903585433960e-02 3.162960335612297058e-02 1.987174525856971741e-02 -2.303080260753631592e-02 -1.580176316201686859e-02 1.703897491097450256e-02 -8.461058139801025391e-03 1.499422267079353333e-02 1.252769678831100464e-02 9.576216340065002441e-03 1.708385720849037170e-02 5.677971057593822479e-03 -7.521660998463630676e-03 1.724030077457427979e-02 2.373155206441879272e-02 1.764271222054958344e-02 9.880866855382919312e-03 1.470293570309877396e-02 1.866868883371353149e-02 9.567887900630012155e-05 8.232787251472473145e-03 1.344944350421428680e-02 -8.678370155394077301e-03 -4.854616709053516388e-03 -2.826383523643016815e-02 2.957139536738395691e-02 6.091272225603461266e-04 -1.873053610324859619e-02 -1.402570772916078568e-02 -3.098486363887786865e-02 6.639622151851654053e-03 -5.442976951599121094e-03 -1.791590079665184021e-02 -1.571068167686462402e-02 -2.913191169500350952e-02 1.822160184383392334e-02 -3.351208195090293884e-02 2.362759783864021301e-02 -1.334393676370382309e-02 3.319799667224287987e-03 3.443603590130805969e-02 -1.002535689622163773e-02 1.176510844379663467e-02 -3.088169731199741364e-02 -2.832047827541828156e-02 -3.845115751028060913e-02 6.981928367167711258e-03 -2.738684788346290588e-02 -4.852577671408653259e-02 -2.442940603941679001e-03 3.109260927885770798e-03 7.065339945256710052e-03 -2.847836352884769440e-02 1.073307264596223831e-02 -3.827270120382308960e-02 -1.943535543978214264e-02 8.173493668437004089e-03 -2.056369557976722717e-02 -2.744358405470848083e-02 -3.012408874928951263e-02 -1.596492156386375427e-02 2.026417478919029236e-02 -1.712848991155624390e-02 -1.800627820193767548e-02 -3.184413909912109375e-02 -1.955322548747062683e-02 -5.258497316390275955e-03 1.401550881564617157e-02 -1.686163991689682007e-02 -6.361341103911399841e-03 -1.614655926823616028e-02 -5.230784788727760315e-02 -4.321928322315216064e-02 -6.655069440603256226e-02 -3.818291053175926208e-02 -4.095375537872314453e-02 -3.917264938354492188e-02 -4.140089452266693115e-02 -2.456015534698963165e-02 -4.487875849008560181e-02 -8.266196586191654205e-03 -5.935880914330482483e-02 -1.211981754750013351e-02 -3.443854302167892456e-02 -9.776377119123935699e-04 -6.645996123552322388e-03 -3.614678233861923218e-02 -1.622966665308922529e-04 2.328239148482680321e-03 -2.440316043794155121e-02 3.097180649638175964e-02 -2.328060753643512726e-02 -2.234716154634952545e-02 1.907975412905216217e-02 -1.644783467054367065e-02 3.222006559371948242e-02 -1.876976713538169861e-02 -2.429593913257122040e-02 -6.974744051694869995e-02 -4.946506395936012268e-02 -3.032295033335685730e-02 -5.961564369499683380e-03 -5.896451883018016815e-03 5.636235326528549194e-02 3.055205568671226501e-03 -2.029702253639698029e-02 -3.856619447469711304e-02 -3.122917562723159790e-02 2.980676246806979179e-03 -6.807701289653778076e-02 -1.136378943920135498e-01 -7.543451339006423950e-02 1.291442546062171459e-03 -2.677126228809356689e-02 8.154803887009620667e-03 -1.464882027357816696e-02 3.224166110157966614e-02 -6.390574853867292404e-03 4.628229886293411255e-03 -2.566330134868621826e-03 -2.918437682092189789e-02 -1.209213957190513611e-02 6.783346179872751236e-03 4.395025596022605896e-02 1.600108668208122253e-02 -2.500856667757034302e-02 -2.834645472466945648e-02 6.330000236630439758e-03 1.600530557334423065e-02 5.937794968485832214e-02 2.220001071691513062e-02 9.352845954708755016e-04 -1.039420813322067261e-02 3.249412029981613159e-02 4.446513950824737549e-02 -5.840136203914880753e-03 -2.642499655485153198e-02 -5.835796147584915161e-02 -6.403771042823791504e-02 -1.072265207767486572e-01 6.596748717129230499e-03 3.279845789074897766e-02 7.104232907295227051e-02 2.902665548026561737e-02 1.101465616375207901e-02 2.773140929639339447e-02 3.055724129080772400e-02 2.491793129593133926e-03 -3.098543360829353333e-02 3.254077583551406860e-02 -1.752245984971523285e-02 2.628403156995773315e-02 -1.802666485309600830e-02 -4.403932765126228333e-02 2.075878344476222992e-02 4.759444296360015869e-02 2.663689292967319489e-02 3.445087373256683350e-02 -4.412766546010971069e-03 6.555345654487609863e-02 3.951525781303644180e-03 -7.420729845762252808e-02 -2.088852412998676300e-02 1.012183912098407745e-02 -2.311536576598882675e-03 -2.245048806071281433e-02 1.263014134019613266e-02 -2.507128380239009857e-02 5.941606685519218445e-02 2.751114033162593842e-02 3.478871658444404602e-02 1.851597800850868225e-02 1.514289807528257370e-02 -3.108738735318183899e-02 1.302701793611049652e-02 2.247310243546962738e-02 -2.195750549435615540e-02 2.817986346781253815e-02 -5.695449188351631165e-03 1.905727840494364500e-04 3.840161487460136414e-02 2.446951344609260559e-02 3.893117606639862061e-02 6.948564201593399048e-02 1.151120942085981369e-02 9.036452509462833405e-03 1.864921487867832184e-02 4.384738951921463013e-02 6.431440263986587524e-02 2.028123708441853523e-03 2.609289437532424927e-02 9.494516253471374512e-02 -1.975110173225402832e-02 -2.152412384748458862e-02 -8.294940926134586334e-03 7.770551834255456924e-03 -3.485025838017463684e-02 5.418403539806604385e-03 7.800900191068649292e-02 3.569457679986953735e-02 -4.661760758608579636e-03 -2.818266861140727997e-03 1.357214432209730148e-02 -1.976336538791656494e-02 2.041481807827949524e-02 -1.406869664788246155e-02 -5.763455759733915329e-03 -1.939798146486282349e-02 -2.039395272731781006e-02 3.434860147535800934e-03 -1.370900869369506836e-02 -4.003452137112617493e-02 -3.695714101195335388e-02 -3.514626622200012207e-02 -7.707327604293823242e-03 -4.414423555135726929e-02 7.058802247047424316e-02 5.363278090953826904e-02 2.624504081904888153e-02 6.904698163270950317e-02 -1.274363137781620026e-02 -5.504969507455825806e-02 -2.841510809957981110e-02 -3.246254846453666687e-02 -6.483139004558324814e-03 -1.816340722143650055e-02 8.124238997697830200e-02 5.776415392756462097e-02 -4.175120033323764801e-03 3.239724785089492798e-02 2.577541209757328033e-02 -3.131498396396636963e-02 1.091523468494415283e-02 3.761214017868041992e-02 1.326541975140571594e-02 -5.315608158707618713e-02 -6.748317927122116089e-02 -3.755193203687667847e-02 8.924184367060661316e-04 -1.909246295690536499e-02 -2.412533946335315704e-02 1.018448616378009319e-03 1.848260872066020966e-02 2.034567669034004211e-02 -3.749029710888862610e-03 7.156535238027572632e-02 3.326592966914176941e-02 -7.235867530107498169e-02 -7.268844544887542725e-02 -1.130396202206611633e-01 -4.956308379769325256e-02 -4.119272157549858093e-02 1.863436028361320496e-02 -5.401217192411422729e-02 3.195949643850326538e-02 3.819777397438883781e-03 -2.352208085358142853e-02 3.905079513788223267e-02 -2.717559039592742920e-02 4.750917665660381317e-03 -8.438674733042716980e-03 -1.702871546149253845e-02 3.646099194884300232e-02 -6.714983284473419189e-02 -1.136563718318939209e-01 -5.597138777375221252e-02 8.302776142954826355e-03 1.509775314480066299e-02 -1.787997409701347351e-02 -2.088990248739719391e-02 6.329948455095291138e-02 -1.590247079730033875e-02 -3.912484645843505859e-02 1.338152680546045303e-03 -1.123651117086410522e-01 -9.214799851179122925e-02 -1.593330353498458862e-01 -1.325336992740631104e-01 -4.862245917320251465e-02 -5.106459185481071472e-02 -6.255416572093963623e-02 -7.809706777334213257e-02 -1.392887253314256668e-02 5.808800458908081055e-02 4.368720948696136475e-02 2.215405739843845367e-02 -2.467587217688560486e-02 2.619942277669906616e-02 -6.631423253566026688e-03 -2.138128876686096191e-02 -2.336371457204222679e-03 -5.243291705846786499e-02 -3.949689492583274841e-02 2.753281034529209137e-02 1.579341664910316467e-02 3.227807581424713135e-02 3.190959617495536804e-02 2.500680275261402130e-02 7.993509620428085327e-02 -2.064915932714939117e-02 -2.175467088818550110e-02 2.656764723360538483e-02 -4.759748466312885284e-03 -3.246666863560676575e-02 -1.461092978715896606e-01 -1.594931334257125854e-01 -5.991360917687416077e-02 -3.090442717075347900e-02 -5.294068530201911926e-02 -6.685790419578552246e-02 -4.838100448250770569e-02 5.571451783180236816e-02 -1.017662975937128067e-02 -6.560536101460456848e-03 -2.831420162692666054e-03 1.420935057103633881e-02 -2.205373719334602356e-03 -3.306893166154623032e-03 -3.946746513247489929e-02 -5.317005142569541931e-02 -7.090887986123561859e-03 7.370233535766601562e-02 8.805537223815917969e-02 2.585247531533241272e-02 1.634343266487121582e-01 7.186208665370941162e-02 1.230823472142219543e-01 8.203738927841186523e-02 1.586164385080337524e-01 6.867868453264236450e-02 1.850139722228050232e-02 -3.098683245480060577e-02 -6.561537086963653564e-02 -1.081405803561210632e-01 -1.351754367351531982e-02 -6.312759220600128174e-02 -4.259258136153221130e-02 -9.650593996047973633e-02 -6.079983711242675781e-02 4.571216925978660583e-02 3.903694916516542435e-03 -4.702506586909294128e-03 4.034974612295627594e-03 2.076797187328338623e-02 -2.590552717447280884e-02 -1.682145334780216217e-02 -1.570442877709865570e-02 5.796328652650117874e-03 1.399145368486642838e-02 9.748199582099914551e-02 7.981500029563903809e-02 8.643995225429534912e-02 1.172296851873397827e-01 1.163073107600212097e-01 1.306123882532119751e-01 1.005132719874382019e-01 1.381491571664810181e-01 1.167017742991447449e-01 1.298365741968154907e-01 5.237844958901405334e-02 -4.758212342858314514e-02 -6.062401924282312393e-03 4.638273268938064575e-02 -5.581371486186981201e-03 -3.241693973541259766e-02 -5.339441448450088501e-02 3.462635912001132965e-03 -3.241856396198272705e-02 -2.627749554812908173e-02 1.829156279563903809e-02 2.267739176750183105e-02 -2.725101076066493988e-02 -2.093294449150562286e-02 2.254744060337543488e-02 5.269212648272514343e-02 1.730680651962757111e-02 6.561399251222610474e-02 7.710635662078857422e-02 1.282760947942733765e-01 2.043005228042602539e-01 1.209054365754127502e-01 4.462907090783119202e-02 1.398483812808990479e-01 9.719309955835342407e-02 1.418227404356002808e-01 1.770209074020385742e-01 8.392155915498733521e-02 4.659953340888023376e-02 -1.223891787230968475e-02 4.997431300580501556e-03 3.553234413266181946e-02 5.465466901659965515e-02 7.134371995925903320e-02 -6.499546114355325699e-03 -5.229916051030158997e-02 -1.687786728143692017e-02 1.646590791642665863e-02 -3.531926870346069336e-02 -2.353954873979091644e-02 -3.543068887665867805e-03 -1.867865212261676788e-02 2.684536948800086975e-02 -4.205657914280891418e-02 -3.998818248510360718e-02 -6.330564618110656738e-02 -2.276195026934146881e-02 7.071334123611450195e-02 2.181018590927124023e-01 1.858840435743331909e-01 2.478149682283401489e-01 2.011000066995620728e-01 8.162089437246322632e-02 8.520806580781936646e-02 1.513137221336364746e-01 1.230041459202766418e-01 1.447323244065046310e-02 2.953571081161499023e-02 -4.562020767480134964e-04 6.024735048413276672e-02 1.061092317104339600e-01 1.040270477533340454e-01 -5.275014787912368774e-03 -8.861675858497619629e-02 -8.821288496255874634e-02 5.299771204590797424e-03 -1.614115200936794281e-02 2.439809497445821762e-03 4.136283416301012039e-03 1.316277682781219482e-02 -6.908701732754707336e-03 -4.430175572633743286e-02 -1.353653520345687866e-01 -2.148875147104263306e-01 -2.274541854858398438e-01 -1.076352745294570923e-01 5.393324419856071472e-02 1.135100871324539185e-01 1.426020711660385132e-01 1.780280023813247681e-01 1.441093385219573975e-01 1.422280967235565186e-01 7.799196988344192505e-02 -6.141910329461097717e-03 3.558628261089324951e-02 2.811904996633529663e-02 -9.712959639728069305e-03 -3.294533863663673401e-02 2.523322775959968567e-02 2.888995409011840820e-02 4.463191144168376923e-03 -8.908648043870925903e-02 -3.319059312343597412e-02 -1.643160358071327209e-02 1.626507565379142761e-02 -1.488767936825752258e-02 -3.073672065511345863e-03 2.122405357658863068e-02 5.802036030218005180e-04 -3.655532002449035645e-02 -2.171593159437179565e-01 -3.227118253707885742e-01 -4.253129661083221436e-01 -3.952896893024444580e-01 -3.384087979793548584e-01 -1.937183439731597900e-01 -1.566101610660552979e-01 -1.108575090765953064e-01 -1.191058568656444550e-02 5.317913368344306946e-02 5.076784268021583557e-02 -5.142216756939888000e-02 -8.728886023163795471e-03 -5.616410076618194580e-02 -1.496010571718215942e-01 -8.375930786132812500e-02 -2.329768612980842590e-02 -6.524857878684997559e-02 -5.817687511444091797e-02 -7.642447203397750854e-02 -6.893492490053176880e-02 5.032216664403676987e-03 -3.309638239443302155e-03 2.460243552923202515e-02 6.049482151865959167e-03 -1.328253280371427536e-02 5.766300484538078308e-03 -4.427051544189453125e-02 -2.064080089330673218e-01 -3.053236305713653564e-01 -4.295887947082519531e-01 -5.501020550727844238e-01 -6.580474376678466797e-01 -5.979926586151123047e-01 -4.330651164054870605e-01 -3.616331219673156738e-01 -1.791664063930511475e-01 -6.926362216472625732e-02 -9.258511662483215332e-02 -1.183812171220779419e-01 -1.094246134161949158e-01 -1.328773945569992065e-01 -1.163863241672515869e-01 -8.032324165105819702e-02 -7.850740849971771240e-02 -9.417613595724105835e-02 -5.860511213541030884e-02 -3.508306667208671570e-02 -3.384765982627868652e-02 -7.993344217538833618e-03 -2.542568184435367584e-02 2.620030753314495087e-02 -2.169562317430973053e-02 -1.768691465258598328e-03 4.764407500624656677e-02 -1.349582243710756302e-02 -1.625217199325561523e-01 -2.603861987590789795e-01 -3.202470242977142334e-01 -4.160146117210388184e-01 -5.737448930740356445e-01 -5.804554224014282227e-01 -4.868356883525848389e-01 -4.291020631790161133e-01 -1.496170163154602051e-01 -3.681994974613189697e-02 -3.927573189139366150e-02 -5.484414752572774887e-03 -8.652851730585098267e-02 -7.494828850030899048e-02 -1.098646298050880432e-01 -6.434676796197891235e-02 -4.708824306726455688e-02 -6.255981326103210449e-02 -7.620233297348022461e-02 -7.411133497953414917e-03 -4.289931966923177242e-04 1.450269948691129684e-02 9.518347796984016895e-04 -2.815978229045867920e-02 -3.185559436678886414e-02 -8.112563751637935638e-03 9.579914622008800507e-03 1.297078374773263931e-02 -8.835259824991226196e-02 -8.955134451389312744e-02 -1.282376646995544434e-01 -9.006406366825103760e-02 -1.465259045362472534e-01 -1.860275715589523315e-01 -6.525142490863800049e-02 -1.013310253620147705e-01 -5.644159391522407532e-02 2.535580843687057495e-02 -3.725391626358032227e-02 2.064402215182781219e-02 6.488335877656936646e-02 -4.472544416785240173e-03 6.853894796222448349e-03 -5.329102650284767151e-02 -1.813418604433536530e-02 1.883940957486629486e-02 -8.265210315585136414e-03 -1.242077909409999847e-02 3.123493678867816925e-02 -2.489747665822505951e-02 2.395418845117092133e-02 -2.948905527591705322e-02 -1.422896236181259155e-02 5.482436623424291611e-03 1.451134774833917618e-02 5.428224802017211914e-02 2.897274447605013847e-03 1.353091280907392502e-02 8.740834891796112061e-02 1.891515105962753296e-01 1.127798557281494141e-01 1.674689054489135742e-01 1.655078679323196411e-01 1.246108114719390869e-01 5.523848161101341248e-02 3.012140654027462006e-02 5.372254922986030579e-02 -3.139352425932884216e-02 -2.808826975524425507e-02 -6.765723228454589844e-02 -6.435403227806091309e-02 -1.606071181595325470e-02 -5.309331044554710388e-02 -2.763024158775806427e-02 -1.393997389823198318e-02 1.161973085254430771e-02 -2.018730342388153076e-02 2.417141385376453400e-02 3.411851450800895691e-02 -5.355000495910644531e-03 2.615837752819061279e-02 -1.508475933223962784e-02 3.364621102809906006e-02 6.830198317766189575e-02 7.221467792987823486e-02 2.709959447383880615e-02 8.435148745775222778e-02 1.409425586462020874e-01 2.138206958770751953e-01 2.149253636598587036e-01 1.878236085176467896e-01 1.334774345159530640e-01 4.607607424259185791e-02 -1.286643929779529572e-02 1.117596309632062912e-02 -5.179769173264503479e-02 -3.517967835068702698e-02 -5.279547721147537231e-02 -2.164258062839508057e-02 -3.960955515503883362e-02 -2.938077971339225769e-02 -2.612385153770446777e-02 -4.284306615591049194e-02 -2.362114004790782928e-02 -2.205468155443668365e-02 3.244569897651672363e-02 3.433493152260780334e-02 -4.350431263446807861e-03 -1.766627281904220581e-02 -6.137933116406202316e-03 1.540034916251897812e-02 4.709217324852943420e-02 1.180183887481689453e-01 9.819328784942626953e-02 1.200719177722930908e-01 6.714738905429840088e-02 1.525454074144363403e-01 2.201026380062103271e-01 1.899599134922027588e-01 1.104900613427162170e-01 2.744640968739986420e-02 5.647751316428184509e-02 -6.116147153079509735e-03 3.825965151190757751e-02 1.436527632176876068e-02 -3.576701879501342773e-02 1.596864126622676849e-02 -6.178623065352439880e-02 -9.193945676088333130e-02 -3.588916268199682236e-03 -4.025675356388092041e-02 6.237298250198364258e-03 -2.334387972950935364e-02 -1.772916689515113831e-02 2.944613620638847351e-02 1.753229647874832153e-02 -4.670165479183197021e-03 2.370785735547542572e-02 1.146510057151317596e-02 3.766364604234695435e-02 7.394085079431533813e-02 9.983238577842712402e-02 1.380975395441055298e-01 3.536006808280944824e-02 9.861282259225845337e-02 1.470897793769836426e-01 8.635832369327545166e-02 -1.134106796234846115e-02 3.990381211042404175e-02 2.394397184252738953e-02 -4.697266221046447754e-02 -1.077016443014144897e-01 2.831823937594890594e-02 -1.550709269940853119e-02 -4.205954819917678833e-02 -1.821864023804664612e-02 -3.014037385582923889e-02 -2.161350846290588379e-02 2.434111572802066803e-02 -1.620023511350154877e-02 -1.651652902364730835e-02 -1.182498224079608917e-02 1.963753998279571533e-02 -6.129298359155654907e-03 -5.513370037078857422e-03 -1.089511811733245850e-02 -4.987778142094612122e-03 3.966767713427543640e-02 6.843950599431991577e-02 5.873061344027519226e-02 2.549070306122303009e-02 4.555212333798408508e-02 6.418406963348388672e-02 4.161921970080584288e-04 1.107638422399759293e-02 3.777424246072769165e-02 2.785695483908057213e-03 4.421704448759555817e-03 -3.497805446386337280e-02 -6.539174169301986694e-02 -5.059221759438514709e-02 -2.355867624282836914e-02 -9.748145937919616699e-03 -3.376898169517517090e-02 -1.719291321933269501e-02 1.674096658825874329e-02 1.680657081305980682e-02 3.213066840544342995e-03 7.487860042601823807e-03 -1.166349509730935097e-03 1.594245061278343201e-02 -1.351702772080898285e-02 2.468273043632507324e-02 1.831199601292610168e-02 4.100276157259941101e-03 2.393807470798492432e-02 1.510166842490434647e-02 -2.186732366681098938e-02 -1.724491827189922333e-02 1.150292530655860901e-02 1.137297134846448898e-02 -3.323409333825111389e-02 -7.376572117209434509e-03 -2.865538559854030609e-02 6.866703741252422333e-03 -1.523629296571016312e-02 2.301645092666149139e-02 -3.310364112257957458e-02 -2.669969014823436737e-02 -4.865016043186187744e-02 -4.673537611961364746e-02 -1.721584238111972809e-02 -6.184707395732402802e-03 -1.132246572524309158e-02 -3.331170603632926941e-02 5.526586435735225677e-03 -2.173857949674129486e-02 -5.879888311028480530e-03 -3.369450569152832031e-02 5.494195967912673950e-03 -3.424172848463058472e-02 -1.704465597867965698e-03 -1.915319636464118958e-02 -2.948598377406597137e-02 -3.510581701993942261e-02 1.542454678565263748e-02 -2.423515077680349350e-03 -2.952620945870876312e-02 1.719616120681166649e-03 -2.022519148886203766e-02 2.928455919027328491e-02 5.962726660072803497e-03 -1.556710246950387955e-02 1.450002752244472504e-02 2.978945709764957428e-02 2.559400908648967743e-02 2.369136363267898560e-02 4.208050202578306198e-03 -1.897215470671653748e-02 -1.039730571210384369e-02 -2.521356008946895599e-02 -1.179602742195129395e-02 2.834035269916057587e-02 2.365906536579132080e-02 -3.413997218012809753e-02 1.582723483443260193e-02 -1.614827476441860199e-02
3.729723393917083740e-03 7.888339459896087646e-04 1.103829592466354370e-03 1.729924231767654419e-02 7.139112800359725952e-03 1.266069710254669189e-02 -1.223616488277912140e-02 -1.803081482648849487e-02 2.409968152642250061e-02 8.497562259435653687e-03 -1.040304265916347504e-02 -2.911184728145599365e-02 3.222383558750152588e-02 3.601246327161788940e-02 2.675142139196395874e-02 2.680751495063304901e-02 -1.641753315925598145e-02 -3.063374944031238556e-02 -4.247765988111495972e-03 3.536612913012504578e-02 -2.943014353513717651e-02 4.739671945571899414e-03 -2.065313793718814850e-02 5.610212683677673340e-04 -3.058227524161338806e-02 -8.453402668237686157e-03 -3.065857850015163422e-02 -1.050304621458053589e-03 -8.900390937924385071e-03 -3.179997950792312622e-02 -2.946366742253303528e-02 3.155517205595970154e-02 -2.016360685229301453e-02 -6.820592097938060760e-03 3.607549518346786499e-02 3.053371980786323547e-02 1.799001730978488922e-02 6.246249191462993622e-03 3.649808466434478760e-02 1.224086619913578033e-02 3.223114833235740662e-02 -9.665129706263542175e-03 -7.660824339836835861e-03 7.514325901865959167e-03 -2.141937427222728729e-02 1.733173988759517670e-02 2.048608846962451935e-02 2.304074168205261230e-02 3.338936716318130493e-02 2.485644258558750153e-02 3.204481676220893860e-02 -6.405747495591640472e-03 -2.595237828791141510e-02 -2.646750770509243011e-02 7.975790649652481079e-03 -3.775767982006072998e-03 3.088156506419181824e-02 -5.376867949962615967e-03 -2.870535664260387421e-02 2.497356757521629333e-02 -2.704500220715999603e-02 2.413170039653778076e-02 2.772578038275241852e-02 8.383648470044136047e-03 5.969161633402109146e-03 2.922733779996633530e-03 1.077834982424974442e-02 -8.244470809586346149e-04 1.086299959570169449e-02 1.951776444911956787e-02 6.855700165033340454e-02 4.863163456320762634e-02 6.951560825109481812e-02 6.655874103307723999e-02 4.985891282558441162e-02 5.959214642643928528e-02 1.803605817258358002e-02 5.307593196630477905e-02 -3.303974866867065430e-03 2.954045124351978302e-02 -1.576254330575466156e-02 3.282195329666137695e-02 3.057381138205528259e-02 2.011204883456230164e-02 1.727762445807456970e-02 -3.296246379613876343e-02 -3.530012816190719604e-02 -3.476734459400177002e-02 2.150461450219154358e-02 1.113831251859664917e-02 -1.087012980133295059e-02 -2.205067686736583710e-02 -3.878470882773399353e-02 3.914268687367439270e-03 9.486842900514602661e-03 -2.095177769660949707e-02 -2.668992988765239716e-02 -2.975312061607837677e-02 -1.089293323457241058e-02 3.952747955918312073e-02 4.376455396413803101e-02 -3.946499433368444443e-03 3.583790361881256104e-02 4.252049699425697327e-02 -2.109398832544684410e-03 3.006550483405590057e-02 -7.885155268013477325e-03 -1.266517769545316696e-02 -2.462464943528175354e-02 1.648818142712116241e-02 1.590014994144439697e-02 -1.982953026890754700e-02 -1.226701587438583374e-02 -2.231937460601329803e-02 1.686699315905570984e-02 2.806361392140388489e-02 -2.534413896501064301e-02 3.454168140888214111e-02 -2.015504054725170135e-03 3.408312425017356873e-02 3.386517986655235291e-02 -4.124346002936363220e-02 -1.870710775256156921e-02 -6.041708961129188538e-02 -6.106024608016014099e-02 -7.903054938651621342e-04 2.955328114330768585e-02 -1.588836126029491425e-02 3.983636200428009033e-02 1.899469643831253052e-02 -4.326280206441879272e-02 3.012616373598575592e-02 5.041538178920745850e-02 -5.525099858641624451e-02 -3.160690516233444214e-02 -3.373780474066734314e-02 -1.015258058905601501e-01 -1.705916225910186768e-02 -3.553560748696327209e-02 3.520651906728744507e-02 -2.868246287107467651e-02 1.199916005134582520e-02 4.601763095706701279e-03 3.412683680653572083e-02 6.549067329615354538e-04 -3.304827259853482246e-03 3.373999893665313721e-02 2.064903033897280693e-03 -3.820133209228515625e-02 -8.095112442970275879e-02 -4.705899953842163086e-02 -8.854211308062076569e-03 6.782248616218566895e-02 8.006769418716430664e-02 3.536661714315414429e-02 9.150326251983642578e-02 -1.497570890933275223e-02 -4.164325073361396790e-02 -1.465625246055424213e-05 -1.567414728924632072e-03 -2.208233065903186798e-02 6.056075915694236755e-03 -6.096567586064338684e-02 -5.450414121150970459e-02 -3.389704599976539612e-02 -5.540750175714492798e-02 7.093067280948162079e-03 1.186120416969060898e-02 -5.373908206820487976e-03 -6.956046447157859802e-03 9.622095152735710144e-03 1.644175685942173004e-02 2.251452393829822540e-02 -7.500824332237243652e-02 -5.626261606812477112e-02 -4.561993852257728577e-02 -1.077284514904022217e-01 -1.084786131978034973e-01 -9.954337775707244873e-02 -5.250449106097221375e-02 -8.586931973695755005e-03 -1.197123248130083084e-02 2.493766881525516510e-02 6.983022671192884445e-03 7.588803768157958984e-02 1.537218503654003143e-02 -4.538976028561592102e-02 -1.217047572135925293e-01 -1.028615906834602356e-01 -7.954616844654083252e-02 -7.731188088655471802e-02 -3.026210144162178040e-02 -1.081799194216728210e-01 -5.552004277706146240e-02 -2.161929942667484283e-02 2.048082835972309113e-02 3.688272088766098022e-03 3.825505264103412628e-03 -1.109326817095279694e-02 -5.299812555313110352e-02 -5.072255805134773254e-02 -9.095785021781921387e-02 -1.264568418264389038e-01 -1.460881680250167847e-01 -1.585739552974700928e-01 -1.051838397979736328e-01 -1.446172595024108887e-01 -7.293151319026947021e-02 -4.910200834274291992e-02 1.188816595822572708e-02 1.595986336469650269e-01 2.116626501083374023e-01 1.269385516643524170e-01 3.139393404126167297e-02 2.130836062133312225e-02 -3.671660274267196655e-02 -6.720530241727828979e-02 -3.164498507976531982e-02 -7.603166997432708740e-02 -5.684114247560501099e-02 -1.108349487185478210e-01 -8.258973062038421631e-02 -5.281915888190269470e-02 -2.311012893915176392e-02 2.533106878399848938e-02 2.388524450361728668e-02 1.057008979842066765e-03 -2.506585605442523956e-02 -2.995717711746692657e-02 -9.108362346887588501e-02 -1.352221965789794922e-01 -1.230616122484207153e-01 -6.224887073040008545e-02 -1.251240223646163940e-01 -7.795786857604980469e-02 -1.238401830196380615e-01 -1.444236785173416138e-01 -2.789187245070934296e-02 2.094083838164806366e-02 6.676081568002700806e-02 6.656729429960250854e-02 5.528234317898750305e-02 -1.432156469672918320e-02 -6.080111861228942871e-02 -1.117200255393981934e-01 -4.479987546801567078e-02 -6.000982969999313354e-02 -1.687543392181396484e-01 -1.751574724912643433e-01 -1.174686104059219360e-01 -4.100376367568969727e-02 -9.642904624342918396e-03 -2.509091049432754517e-03 -2.320325747132301331e-02 -5.443472787737846375e-02 -7.922592759132385254e-02 -8.378217369318008423e-02 -8.901403844356536865e-02 -1.181697696447372437e-01 -6.779195368289947510e-02 -8.525386452674865723e-02 -6.286738067865371704e-02 5.627834051847457886e-02 -6.628629565238952637e-02 -9.278505295515060425e-02 -6.876754015684127808e-02 4.657772183418273926e-02 1.569421887397766113e-01 8.108594268560409546e-02 2.538671903312206268e-02 -2.504899725317955017e-02 -8.818036317825317383e-02 -4.304112866520881653e-02 -9.486915916204452515e-02 -1.692517399787902832e-01 -1.710963845252990723e-01 -2.023713737726211548e-01 -1.508248746395111084e-01 -3.466598689556121826e-02 -2.342503704130649567e-02 -3.712043864652514458e-03 -3.881708718836307526e-03 -3.467584773898124695e-02 -7.144741714000701904e-02 -9.669626504182815552e-02 -9.404574334621429443e-02 -8.519066870212554932e-02 -5.336874723434448242e-02 2.488015964627265930e-02 3.020074777305126190e-02 9.272216260433197021e-02 9.937909990549087524e-02 2.062766999006271362e-02 3.863793611526489258e-02 2.031698375940322876e-01 1.882834881544113159e-01 7.772916555404663086e-02 6.526804715394973755e-02 4.844534397125244141e-02 4.610566888004541397e-03 -9.757069498300552368e-02 -1.636316478252410889e-01 -1.858296245336532593e-01 -2.749858200550079346e-01 -3.319070041179656982e-01 -1.728216707706451416e-01 -8.140096068382263184e-02 -3.964372724294662476e-02 -1.044521480798721313e-02 -3.528454527258872986e-02 -1.844442822039127350e-02 -1.185412406921386719e-01 -1.225069612264633179e-01 -3.691673651337623596e-02 -6.317936629056930542e-02 3.330035507678985596e-02 1.458481699228286743e-01 9.806503355503082275e-02 1.358026415109634399e-01 1.186335384845733643e-01 1.369207352399826050e-01 1.302516013383865356e-01 2.523339092731475830e-01 2.132661491632461548e-01 1.071484312415122986e-01 6.388288736343383789e-02 6.973838806152343750e-02 7.402872294187545776e-02 9.010337293148040771e-02 -4.421858116984367371e-02 -1.446523964405059814e-01 -2.117784172296524048e-01 -2.075726091861724854e-01 -1.270114630460739136e-01 -2.673034928739070892e-02 -1.368600036948919296e-02 1.087928377091884613e-02 -1.931060664355754852e-02 -6.241888552904129028e-02 -1.285398602485656738e-01 -5.814880132675170898e-02 -7.270887494087219238e-02 -4.119423404335975647e-02 1.183294598013162613e-02 1.048000976443290710e-01 1.585384309291839600e-01 2.418844774365425110e-02 8.782584220170974731e-02 5.664482712745666504e-02 2.129860073328018188e-01 3.074126839637756348e-01 2.113360911607742310e-01 1.487702578306198120e-01 2.190015017986297607e-01 1.977608948945999146e-01 1.605423986911773682e-01 9.841297566890716553e-02 6.008783238939940929e-04 -4.474455863237380981e-02 -1.154702715575695038e-02 -8.757899701595306396e-02 -1.172488108277320862e-01 -4.799409210681915283e-02 4.825393669307231903e-03 -1.567874290049076080e-02 1.445997972041368484e-02 -4.278755933046340942e-02 -1.031322777271270752e-01 -4.817272350192070007e-02 -1.049031391739845276e-01 -3.445181623101234436e-02 1.612847670912742615e-02 1.014184057712554932e-01 7.551530748605728149e-02 -1.536713726818561554e-02 -2.695638453587889671e-03 1.220310032367706299e-01 2.825882732868194580e-01 3.448998034000396729e-01 2.201211452484130859e-01 2.431232929229736328e-01 2.403013557195663452e-01 1.658407747745513916e-01 1.437423974275588989e-01 -8.044292032718658447e-02 -8.090096712112426758e-02 -6.719176471233367920e-02 -4.290302842855453491e-02 -6.101585179567337036e-02 -6.441320478916168213e-02 -2.829607576131820679e-02 -1.462015230208635330e-02 -1.311346609145402908e-02 -2.241685427725315094e-02 -1.137851085513830185e-02 -3.150687366724014282e-02 -8.037199825048446655e-02 -1.022217050194740295e-01 -7.122450321912765503e-02 -6.072116643190383911e-02 -1.410941034555435181e-02 1.123968791216611862e-02 -6.254620105028152466e-02 9.628567844629287720e-03 1.136000305414199829e-01 2.854648828506469727e-01 2.652098536491394043e-01 1.653768420219421387e-01 1.561012864112854004e-01 3.914691135287284851e-02 -5.653684958815574646e-02 -1.085202917456626892e-01 -2.328159511089324951e-01 -2.345243841409683228e-01 -1.468736231327056885e-01 -1.059407740831375122e-01 -9.392683953046798706e-02 -2.721076086163520813e-02 8.789616636931896210e-03 -1.810969226062297821e-02 1.032684836536645889e-02 1.549567654728889465e-02 2.227982692420482635e-02 -2.635274082422256470e-02 -5.164454132318496704e-02 -7.583289593458175659e-02 -1.772924363613128662e-01 -1.114098578691482544e-01 1.871874742209911346e-02 -6.631224881857633591e-03 4.807006195187568665e-02 5.045154690742492676e-02 6.245749816298484802e-02 1.564184576272964478e-01 1.895854920148849487e-01 5.972871184349060059e-02 1.149619668722152710e-01 -8.714941889047622681e-02 -1.835743188858032227e-01 -2.770530283451080322e-01 -3.149942457675933838e-01 -2.223151922225952148e-01 -1.904395222663879395e-01 -1.308349221944808960e-01 -6.431588530540466309e-02 -4.291415587067604065e-02 -2.583924122154712677e-02 -1.227572839707136154e-02 -3.239566460251808167e-02 -1.550970505923032761e-02 1.606660149991512299e-02 1.451862859539687634e-03 -2.446753531694412231e-02 -1.220985725522041321e-01 -1.881716549396514893e-01 -7.066445052623748779e-02 4.323937743902206421e-02 6.092854589223861694e-02 1.313488334417343140e-01 1.946610361337661743e-01 -4.382669180631637573e-02 -8.434313349425792694e-03 1.129131466150283813e-01 -7.025279849767684937e-02 5.907920747995376587e-02 -2.416057437658309937e-01 -2.147008627653121948e-01 -2.703072428703308105e-01 -2.333697378635406494e-01 -2.069361507892608643e-01 -1.523281335830688477e-01 -1.502295732498168945e-01 -9.541635960340499878e-02 -1.510386262089014053e-02 -4.689450841397047043e-03 3.300098329782485962e-02 -1.915949210524559021e-02 -1.784247905015945435e-02 -2.541506895795464516e-03 -1.859989762306213379e-02 -8.671110123395919800e-02 -1.761998087167739868e-01 -2.925602495670318604e-01 -1.579799056053161621e-01 2.133807726204395294e-02 7.723578065633773804e-02 2.417904436588287354e-01 1.041186302900314331e-01 9.549094364047050476e-03 -3.798628970980644226e-02 3.948336839675903320e-02 -6.097123026847839355e-02 -1.265709102153778076e-01 -2.338802963495254517e-01 -2.466016709804534912e-01 -2.338164448738098145e-01 -1.552961468696594238e-01 -1.320132166147232056e-01 -7.485333085060119629e-02 -6.715754419565200806e-02 -7.097891718149185181e-02 -5.708144977688789368e-02 -4.262108728289604187e-02 9.335546637885272503e-04 -2.740424312651157379e-02 2.773748338222503662e-02 3.110913187265396118e-02 -6.075569242238998413e-02 -1.103095337748527527e-01 -2.335877716541290283e-01 -2.565828561782836914e-01 -1.558138281106948853e-01 -4.656710475683212280e-02 1.282874345779418945e-01 8.693449199199676514e-02 -1.464716740883886814e-03 -1.489459574222564697e-01 -1.147343963384628296e-01 -4.285973682999610901e-02 -8.452955633401870728e-02 -1.816378235816955566e-01 -1.469337344169616699e-01 -7.079018652439117432e-02 -1.231850981712341309e-01 -5.057753622531890869e-02 -5.852320045232772827e-02 -8.013204671442508698e-03 -8.880838751792907715e-02 -9.456554055213928223e-02 -1.483809296041727066e-02 1.026711147278547287e-02 1.411537639796733856e-02 2.378938533365726471e-02 -8.348494768142700195e-03 1.892810314893722534e-02 8.746558800339698792e-03 -1.215570643544197083e-01 -2.256421148777008057e-01 -2.507404088973999023e-01 -6.645841896533966064e-02 -9.099584817886352539e-02 1.637320406734943390e-02 1.792552997358143330e-03 -9.724061191082000732e-02 -1.692637950181961060e-01 -7.170956581830978394e-02 -4.784297943115234375e-02 -7.212365418672561646e-02 -5.871349480003118515e-03 -5.544772371649742126e-02 -4.504551365971565247e-02 -4.366178065538406372e-02 3.902270644903182983e-02 5.119423940777778625e-02 -1.305629685521125793e-02 -5.350111424922943115e-02 -2.656585723161697388e-02 2.447632513940334320e-02 2.348183467984199524e-02 1.823877729475498199e-02 2.061086148023605347e-02 -5.839356686919927597e-03 -4.284561146050691605e-03 -5.770695954561233521e-02 -8.032460510730743408e-02 -1.293702274560928345e-01 -1.531984806060791016e-01 -1.067341417074203491e-01 -7.120317965745925903e-02 -5.117433145642280579e-02 -1.612411253154277802e-02 -9.466710686683654785e-02 -3.172549977898597717e-02 4.200599715113639832e-02 -1.460772100836038589e-02 -2.807663381099700928e-02 9.031283669173717499e-03 -8.869240060448646545e-03 1.114334911108016968e-02 -1.050691958516836166e-02 2.922734059393405914e-02 6.081805378198623657e-02 -7.224098779261112213e-03 -2.468256093561649323e-02 -4.398185759782791138e-02 -3.376143425703048706e-02 -8.559324778616428375e-03 1.757085695862770081e-02 -2.381262369453907013e-02 2.696049772202968597e-02 2.019433863461017609e-02 -3.741859644651412964e-02 -8.302999287843704224e-02 -4.422106593847274780e-02 -6.507547199726104736e-02 -3.783067315816879272e-02 -1.745900139212608337e-02 7.477715611457824707e-02 7.580821961164474487e-02 -3.349937871098518372e-02 3.835618868470191956e-02 4.271412268280982971e-02 8.898885920643806458e-03 6.719523109495639801e-03 1.077994145452976227e-02 6.387509405612945557e-02 1.834340393543243408e-02 -1.751119084656238556e-02 2.710509859025478363e-02 5.399131402373313904e-02 1.276821456849575043e-02 -1.605418883264064789e-02 -9.365385398268699646e-03 -4.208007454872131348e-02 1.993701606988906860e-02 -5.595159251242876053e-03 8.347012102603912354e-03 -1.787649467587471008e-02 -3.589469566941261292e-02 7.134606596082448959e-03 -5.150542408227920532e-02 3.386647999286651611e-02 1.650089025497436523e-02 -8.800920099020004272e-02 3.308438137173652649e-02 6.035871803760528564e-02 1.294237077236175537e-01 -1.769471168518066406e-02 -1.966642402112483978e-02 -8.171404711902141571e-03 5.637901276350021362e-02 2.253388985991477966e-02 2.809212729334831238e-02 5.342157930135726929e-02 3.296140581369400024e-02 -1.326724514365196228e-02 6.947772949934005737e-02 3.216176852583885193e-02 1.690271496772766113e-02 1.243709214031696320e-02 -2.691135928034782410e-02 3.067483752965927124e-02 -5.089067388325929642e-03 1.616566628217697144e-02 2.919510379433631897e-02 -1.869210600852966309e-02 -1.153127476572990417e-02 -4.324786365032196045e-02 -5.623425170779228210e-02 -1.794005371630191803e-02 -5.597620084881782532e-02 -1.254831254482269287e-01 -2.102083712816238403e-02 1.116811856627464294e-02 -2.692827768623828888e-02 -4.693155735731124878e-02 6.377402693033218384e-02 2.531501278281211853e-02 4.032822698354721069e-02 9.942206554114818573e-03 5.095617473125457764e-02 7.648049294948577881e-02 3.749755769968032837e-02 2.535523287951946259e-02 7.259357720613479614e-02 9.987070411443710327e-02 2.664197701960802078e-03 -1.305934973061084747e-02 -3.017605654895305634e-02 1.192413736134767532e-02 3.102903813123703003e-02 1.210196316242218018e-02 2.518247067928314209e-02 -1.326171495020389557e-02 2.361830510199069977e-02 3.089796751737594604e-03 -6.842088885605335236e-03 -2.422969602048397064e-02 -6.966008991003036499e-02 -1.070514246821403503e-01 -3.485177829861640930e-02 -1.241963580250740051e-01 -6.935232132673263550e-02 -1.272599697113037109e-01 -1.323057115077972412e-01 -1.399322450160980225e-01 -1.188261583447456360e-01 -4.949992522597312927e-02 2.669860236346721649e-02 4.732130467891693115e-02 2.661182358860969543e-02 6.602222472429275513e-02 2.555121295154094696e-02 8.804855495691299438e-02 1.489060930907726288e-02 -2.676946343854069710e-03 2.853959798812866211e-02 1.449369266629219055e-02 -3.642563149333000183e-02 -1.049125194549560547e-02 9.813711047172546387e-03 -1.173121668398380280e-02 2.906337752938270569e-02 3.314427798613905907e-03 -8.136922493577003479e-03 -1.147201401181519032e-03 2.376884594559669495e-02 -4.172479733824729919e-02 2.282622456550598145e-02 -5.333582684397697449e-02 -1.318950951099395752e-01 -1.302009224891662598e-01 -7.497288286685943604e-02 -8.269263058900833130e-02 -8.243588730692863464e-03 -4.040764272212982178e-02 -4.470394458621740341e-03 5.280639603734016418e-02 4.827724024653434753e-02 -1.987314969301223755e-02 6.477257609367370605e-02 4.056336730718612671e-02 -2.211464755237102509e-02 -2.124122902750968933e-02 -9.145273827016353607e-03 2.259030938148498535e-02 3.189360722899436951e-02 -1.312800496816635132e-02 1.973499357700347900e-02 -2.499734237790107727e-02 -1.971215568482875824e-02 -2.845271304249763489e-02 -2.130585536360740662e-02 5.436046514660120010e-03 7.350212335586547852e-02 6.505274772644042969e-02 5.181672796607017517e-02 4.172666370868682861e-02 4.669013246893882751e-02 8.927720040082931519e-02 5.827272310853004456e-02 3.714393079280853271e-02 1.011603102087974548e-01 6.468457728624343872e-02 7.094419002532958984e-02 4.002719372510910034e-02 4.588632658123970032e-02 4.332013428211212158e-02 4.681085795164108276e-02 1.157135050743818283e-02 -1.261078380048274994e-02 3.700213134288787842e-02 -5.920301657170057297e-03 2.353899553418159485e-02 -3.540105372667312622e-02 1.370681822299957275e-02 -2.682360634207725525e-02 -7.186012342572212219e-03 -3.067752346396446228e-02 -3.938641399145126343e-03 3.480479121208190918e-02 6.067525246180593967e-04 -2.216086722910404205e-02 6.821809802204370499e-03 2.037364989519119263e-02 -3.382208943367004395e-02 -1.269521843641996384e-02 2.300467714667320251e-02 -6.232199724763631821e-03 -3.703486546874046326e-02 -2.164244838058948517e-02 -3.615257516503334045e-02 -3.693421185016632080e-02 -1.112999580800533295e-02 -3.976325690746307373e-02 1.534391567111015320e-02 -1.165789552032947540e-03 -7.622249424457550049e-03 -3.404684364795684814e-02 1.582725718617439270e-02 -2.771740406751632690e-02 -3.087754547595977783e-02 -2.031135186553001404e-02 